tree
version=v4
num_class=3
num_tree_per_iteration=3
label_index=0
max_feature_idx=14
objective=multiclass num_class:3
feature_names=open high low close volume SMA_20 SMA_50 SMA_200 EMA_12 EMA_26 RSI_14 ATR VMA_20 OBV signal
feature_infos=[4552.990234375:73399.8984375] [4940:73881.3984375] [3621.81005859375:72934.1015625] [4553.39013671875:73399.8984375] [4452.64794921875:145183.19116210938] [5198.5399902343752:72333.639843750003] [5458.9587695312503:70250.91796875] [6355.4368359375003:68598.159433593755] [5119.5048695253226:72676.851252814231] [5383.8259028615321:71596.654847961268] [5.3516827395903892:92.820619246795047] [46.180981790440413:3071.2533845334146] [11312.439599609375:139905.67753906251] [-3284144.6418457031:7810782.0974121094] none
tree_sizes=4318 4406 3612 4166 4501 3536 4478 4497 3730 4479 4509 3722 4486 4516 3547 4474 4512 3856 4067 4527 3735 4298 4518 3419 4275 4514 4484 4488 4509 3546 3865 3156 3412 4067 4510 3536 4502 4533 4497 4499 4411 4161 4392 4524 3640 4506 4516 4054 4495 4527 3959 4505 4510 3535 4199 4525 3642 3655 4518 4500 4483 4518 3657 3426 4514 4185 4482 4519 3857 4498 4537 3425 4393 4536 4478 3248 3464 3746 4383 4521 3657 4156 4514 3543 4532 4529 3656 4489 4514 3760 4496 2921 3769 4496 4213 2056 4496 4513 3438 4515 2503 4289 4509 4524 3352 4410 4542 4285 4404 4532 4516 3984 2713 4415 4424 4533 3862 4506 4534 3663 4520 4538 3770 4409 4545 4299 4512 4538 3237 4506 4539 3230 4401 4524 4514 4521 4515 4522 2720 4545 4495 4513 4537 4520 4502 4540 3859 4515 4542 3758 3970 4535 3239 4526 4448 3340 3152 4549 3990 4512 4531 3137 4090 4548 3775 4391 4328 3875 4418 4549 2710 4488 4540 3434 4107 4536 4527 4519 4527 3144 3786 4304 2727 4315 4325 3255 4281 4548 3350 4416 4551 3146 4209 4543 4437 4182 4539 2704 4418 4528 4103 3154 4537 2395 4421 4536 3351 4182 4535 3252 3680 4547 3561 4527 4219 2811 3670 4210 3150 4526 2954 3256 4519 4130 3130 4215 4015 4527 4001 4537 2512 3164 2942 2391 4505 3264 3026 3171 4203 2719 4521 2175 3032 3355 4526 3011 4410 4119 3005 4231 4545 3025 3265 4442 2914 4007 1642 3027 3262 4247 3127 3160 4556 3253 4294 3275 2603 4230 3169 3961 3164 4114 2388 1292 4122 2505 4009 4426 3022 3669 4116 2821 3985 4230 3131 3249 4123 2713 3684 3165 3798 4305 3274 2816 3864 4438 2931 4534 3371 3572

Tree=0
num_leaves=41
num_cat=0
split_feature=10 4 12 10 4 4 12 4 12 4 12 4 0 4 12 3 10 12 4 4 4 10 5 11 10 4 5 10 10 12 13 6 4 10 10 13 5 11 3 10
split_gain=954.487 458.686 129.347 76.8501 69.4975 54.0451 44.4655 55.7434 35.0587 46.7082 30.4095 12.2209 11.4433 11.3821 17.4133 11.2685 10.6138 10.5781 10.2074 9.48708 9.4149 31.6734 8.62861 6.61015 4.37816 4.23967 4.02468 4.02177 3.87989 6.3573 3.08111 2.7085 1.69733 3.99361 1.07775 1.01823 0.912544 0.734945 0.531265 0.502171
threshold=39.479966936141132 66631.687500000015 84539.390795898464 46.254950866960748 87213.523437500015 124821.42187500001 39483.577539062513 33192.564453125007 56597.155419921881 90705.402343750015 77127.892254638675 48341.064453125007 21241.750000000004 40398.189453125007 66352.202569580098 9577.1298828125018 33.983843297702059 49311.789544677747 107093.92187500001 109894.33984375001 102685.92578125001 49.022705375853491 21391.210009765629 1004.4249356692879 43.464988164046225 55074.111328125007 61890.542968750007 41.154765623374232 55.990889593216671 66352.202569580098 4533831.9897460947 23511.980957031254 66114.246093750015 49.18532382243113 47.495322515183979 890344.46789550793 22126.514892578129 771.15933067298204 15042.990234375002 61.584747121287407
decision_type=8 2 10 8 2 2 8 2 10 2 10 2 2 2 10 2 10 10 2 2 2 10 10 10 10 2 10 10 10 10 2 10 2 10 10 2 8 8 2 10
left_child=1 6 8 4 11 31 7 15 -3 37 18 26 -7 30 25 -1 -11 24 -6 -12 32 -22 -21 -19 -13 -15 27 -2 29 -23 35 -4 -5 34 -34 -8 -16 -10 -30 -35
right_child=3 2 5 20 10 12 13 -9 9 16 19 17 -14 14 36 -17 -18 23 -20 22 21 28 -24 -25 -26 -27 -28 -29 38 -31 -32 -33 33 39 -36 -37 -38 -39 -40 -41
leaf_value=-2.6126920452829565 -2.6363375453057389 -2.5347911547581976 -2.641967340346139 -2.6490538949209528 -2.6101880196322926 -2.6054330334310492 -2.6384953433014866 -2.574053384742236 -2.5972994501425659 -2.5422383520437406 -2.6430285033733978 -2.6096533144880945 -2.5686050635543562 -2.6250324250047607 -2.6479246182159115 -2.6458471316290089 -2.5802945018660526 -2.6426092834661228 -2.5734925141966229 -2.6357810792142669 -2.6104007728355354 -2.6227520727733089 -2.6064549517499529 -2.6266525253193906 -2.6321606350684461 -2.6075584208465212 -2.6305711624870716 -2.6464485317611031 -2.6412931150098315 -2.6445115335558325 -2.6331206243410601 -2.6253178364022376 -2.6424313483507955 -2.6459215266661165 -2.6327096240334544 -2.6479004580614931 -2.6388114841703629 -2.6158848365150593 -2.6485876903880539 -2.6492186554176205
leaf_weight=4.7855851650238055 14.755554258823393 23.030628606677055 5.2840836197137833 437.18314476311207 6.6798792928457278 6.6798792928457269 4.9849845468998017 8.9729721844196302 5.1843839287757847 13.658857658505442 6.281080529093745 6.5801796019077283 8.9729721844196302 13.359758585691454 5.6828823834657642 6.8792786747217178 8.5741734206676465 23.927925825119019 5.8822817653417587 5.0846842378377897 8.075674965977667 4.8852848559618023 7.6768762022256851 11.266065075993536 4.8852848559617996 7.4774768203496924 6.2810805290937415 67.396991074085236 4.7855851650238028 15.55315178632736 7.3777771294116965 5.4834830015897751 5.6828823834657651 47.157953813672066 7.1783777475357056 17.048647150397301 8.4744737297296524 4.7855851650238046 52.142938360571861 43.469065248966217
leaf_count=48 148 231 53 4385 67 67 50 90 52 137 63 66 90 134 57 69 86 240 59 51 81 49 77 113 49 75 63 676 48 156 74 55 57 473 72 171 85 48 523 436
internal_value=-2.63677 -2.59851 -2.56884 -2.64485 -2.63422 -2.60235 -2.62733 -2.60529 -2.55349 -2.56886 -2.61099 -2.63976 -2.58218 -2.63468 -2.62796 -2.63165 -2.55461 -2.6325 -2.59042 -2.6258 -2.64768 -2.64216 -2.61742 -2.63739 -2.61835 -2.61796 -2.64359 -2.64464 -2.6457 -2.63899 -2.64268 -2.63333 -2.64854 -2.6463 -2.63705 -2.64591 -2.64287 -2.60413 -2.64805 -2.64759
internal_weight=959.51 166.698 81.654 792.812 166.698 26.4204 85.0438 20.6378 55.2336 32.203 31.6048 135.093 15.6529 64.406 34.9946 11.6649 22.233 46.6595 12.5622 19.0426 626.114 85.4426 12.7616 35.194 11.4655 20.8372 88.4336 82.1525 77.367 20.4384 29.4114 10.7676 540.671 103.488 12.8613 22.0336 14.1574 9.96997 56.9285 90.627
internal_count=9624 1672 819 7952 1672 265 853 207 554 323 317 1355 157 646 351 117 223 468 126 191 6280 857 128 353 115 209 887 824 776 205 295 108 5423 1038 129 221 142 100 571 909
is_linear=0
shrinkage=1


Tree=1
num_leaves=41
num_cat=0
split_feature=4 12 10 4 10 10 10 10 10 4 12 12 4 10 10 12 12 12 4 12 4 4 12 10 10 10 10 0 0 12 12 10 4 6 8 12 10 10 4 12
split_gain=613 176.679 114.511 88.7522 82.3389 144.874 75.2438 44.0083 68.3192 35.692 45.8197 31.6199 55.5972 22.4965 25.4584 21.8114 21.5303 20.2724 16.8257 17.5109 14.706 11.4019 10.2084 10.0998 9.54929 9.38081 9.33135 8.77092 8.00102 7.78653 7.04674 6.42073 6.22604 6.13962 12.3295 5.84741 5.61199 4.53458 6.99447 4.03719
threshold=75214.203125000015 63690.689135742192 67.931612770080122 118600.50781250001 38.433669483537749 66.401599771894638 40.998289169734342 40.616650331798049 66.899515578378967 39531.126953125007 70843.217797851583 40954.914550781257 37042.814453125007 34.305911500360473 61.422251719531566 98519.868603515642 35477.739428710942 40445.442480468759 59242.568359375007 56821.022436523446 107093.92187500001 145159.78308105472 79136.723297119155 72.437017233279562 45.634316222995324 43.994848043361181 60.900318828199048 22925.299804687504 22823.250000000004 91343.361480712905 98519.868603515642 50.631083589582907 48614.835937500007 52609.319609375008 61561.39063613343 31757.68581542969 36.788746793494091 45.991319789141507 61637.480468750007 61591.80000000001
decision_type=2 10 10 2 10 10 8 10 10 2 10 8 2 10 10 10 10 10 2 10 2 2 10 10 10 10 10 2 2 10 10 10 2 10 10 10 10 8 2 8
left_child=2 4 6 13 -2 20 11 15 30 17 16 12 35 27 24 21 -11 -4 -13 -20 25 -5 -16 -7 -15 -6 37 -3 -17 -10 -9 -22 -18 39 -35 -1 -14 38 -8 -28
right_child=1 3 9 7 5 23 26 8 29 10 -12 18 36 14 22 28 32 -19 19 -21 31 -23 -24 -25 -26 -27 33 -29 -30 -31 -32 -33 -34 34 -36 -37 -38 -39 -40 -41
leaf_value=-0.14572747991111754 -0.19612797678201038 -0.14585779425189987 -0.15239953444996546 -0.16782947646068658 -0.15875821979265037 -0.17674228098141948 -0.13036603631858532 -0.14910481846628204 -0.18695698613679096 -0.19265960654398254 -0.13239024277197264 -0.13443284247245332 -0.18169368368136846 -0.14115892423957541 -0.16370608077269933 -0.14614850865893603 -0.15044762409835349 -0.12985938794156346 -0.16477063565436867 -0.13876154230098267 -0.17347171442550499 -0.19259179945757832 -0.1443464016661222 -0.19997433522895394 -0.130427636900766 -0.13971381022474424 -0.13446541135147211 -0.1712210173958203 -0.16866341448140862 -0.16439261552713774 -0.13819317819538096 -0.15243955875641493 -0.16640112764719972 -0.15545910246115074 -0.1312217928688304 -0.13075753435022497 -0.1610518407068702 -0.12822241850083874 -0.14158381940255652 -0.1280069207215726
leaf_weight=14.868556872010233 38.453164324164391 8.2033417224884051 21.191966116428375 13.330430299043657 9.5705653429031354 14.355848014354704 150.39459824562073 42.042126327753067 13.843139156699182 8.545147627592085 14.355848014354704 115.01768706738949 12.988624393939974 42.38393223285675 12.98862439393997 9.9123712480068225 12.475915536284445 27.857181265950203 12.134109631180761 21.191966116428375 8.2033417224884051 17.432101160287857 23.242801547050476 24.780928120017052 64.601316064596176 36.231425940990448 95.53475047647953 9.0578564852476102 10.083274200558661 11.792303726077078 31.787949174642563 12.134109631180761 26.831763550639153 10.766886010766031 14.355848014354704 16.235780492424965 9.9123712480068189 540.39513596892357 19.312033638358116 45.972894236445427
leaf_count=87 225 48 124 78 56 84 880 246 81 50 84 673 76 248 76 58 73 163 71 124 48 102 136 145 378 212 559 53 59 69 186 71 157 63 84 95 58 3162 113 269
internal_value=-0.140562 -0.157972 -0.133909 -0.150449 -0.174098 -0.165717 -0.132152 -0.160156 -0.153175 -0.150895 -0.159684 -0.141841 -0.153302 -0.141311 -0.138986 -0.173452 -0.16788 -0.139637 -0.137628 -0.14854 -0.14959 -0.182764 -0.15162 -0.19229 -0.134657 -0.143911 -0.129916 -0.159899 -0.158116 -0.177549 -0.144425 -0.161796 -0.161622 -0.133731 -0.141724 -0.137879 -0.173694 -0.129029 -0.131644 -0.13231
internal_weight=1644.77 454.431 1190.34 310.702 143.729 105.276 1079.08 150.224 99.4655 111.258 62.2087 202.349 54.0053 160.478 143.217 50.7582 47.8528 49.0491 148.344 33.3261 66.1394 30.7625 36.2314 39.1368 106.985 45.802 876.732 17.2612 19.9956 25.6354 73.8301 20.3375 39.3077 166.63 25.1227 31.1043 22.901 710.102 169.707 141.508
internal_count=9624 2659 6965 1818 841 616 6314 879 582 651 364 1184 316 939 838 297 280 287 868 195 387 180 212 229 626 268 5130 101 117 150 432 119 230 975 147 182 134 4155 993 828
is_linear=0
shrinkage=1


Tree=2
num_leaves=34
num_cat=0
split_feature=10 4 10 4 4 10 4 11 13 13 11 13 10 4 11 6 4 11 10 6 13 6 13 11 4 11 10 13 4 11 10 4 10
split_gain=1197.04 311.114 93.0292 66.6344 60.9687 35.1694 27.2234 26.6763 52.8027 18.0377 28.7048 17.3245 15.5171 19.1004 13.0093 12.8953 12.3322 8.58987 8.44907 8.41813 4.73428 4.49733 2.80222 2.32609 2.25139 5.32256 2.13272 1.0486 0.844846 0.782431 0.240502 1.54753 1.47727
threshold=66.401599771894638 75214.203125000015 61.080691408307509 41920.990234375007 80244.289062500015 67.931612770080122 99924.855468750015 170.42856059312535 4239155.2481689462 6076376.9769287119 152.67746390272222 1791408.9614257815 56.684520634878574 107093.92187500001 1455.2163034316072 42737.109335937508 29113.989257812504 385.8818567935665 63.286321559524161 23185.194023437503 3308489.0456542973 52609.319609375008 2470251.8417968755 534.12819990635091 36344.492187500007 193.87544688899379 70.551763599597763 3153844.9132080083 105707.54296875001 1270.988073213394 52.659201848998556 95757.589843750015 54.06153449976005
decision_type=10 2 10 2 2 10 2 10 2 2 10 2 10 2 10 10 2 10 10 10 2 10 2 10 2 10 10 2 2 10 10 2 10
left_child=2 3 12 9 15 -5 20 -7 -9 10 26 17 30 14 29 24 -17 -8 28 -20 -3 -18 -15 -12 27 -26 -2 -4 -6 -14 -1 -32 -33
right_child=1 6 4 5 18 7 11 8 -10 -11 23 -13 13 22 -16 16 21 -19 19 -21 -22 -23 -24 -25 25 -27 -28 -29 -30 -31 31 32 -34
leaf_value=-2.8335688649249153 -2.8033029144145307 -2.7790945614612204 -2.8328582990261557 -2.8156163081978121 -2.8100050832599495 -2.7282926482908021 -2.7282816166044914 -2.8133603226380677 -2.7577473710066376 -2.7782614408576505 -2.8197871364328564 -2.7063184763237111 -2.8301123889308175 -2.813286563623691 -2.8002594295104744 -2.8294086242454686 -2.8114094334658741 -2.7748333460151708 -2.7991044984027846 -2.7603353036486218 -2.7459727147079773 -2.7898746985973291 -2.7911015103843635 -2.831466770409075 -2.8060757753995476 -2.8254852035496976 -2.7809497093872757 -2.8247977844153644 -2.7947990192575847 -2.8224884960520593 -2.8328406874107674 -2.8175504074748239 -2.8300598388195799
leaf_weight=432.0481635928154 4.7874699309468287 6.2153118401765814 11.674707375466825 5.6273769363760939 4.1155443266034144 4.7034792304039028 4.5354978293180483 8.3990700542926806 14.950344696640967 4.1995350271463385 8.8190235570073146 18.30997271835804 72.148011766374111 4.0315536260604841 4.2835257276892653 5.7113676369190243 6.8032467439770681 5.7113676369190216 4.1155443266034109 5.8793490380048752 8.819023557007311 6.7192560434341431 4.0315536260604858 11.842688776552675 4.7034792304039028 22.089554242789745 4.4515071287751198 10.330856166779993 4.0315536260604858 4.8714606314897528 78.279332906007767 4.1995350271463376 6.8872374445199966
leaf_count=5144 57 74 139 67 49 56 54 100 178 50 105 218 859 48 51 68 81 68 49 70 105 80 48 141 56 263 53 123 48 58 932 50 82
internal_value=-2.82113 -2.76764 -2.82973 -2.7918 -2.81263 -2.77445 -2.73118 -2.76655 -2.77689 -2.80958 -2.81492 -2.71954 -2.83215 -2.8253 -2.82793 -2.82042 -2.80846 -2.74934 -2.78459 -2.77365 -2.75703 -2.79962 -2.80056 -2.82659 -2.82525 -2.82175 -2.79032 -2.82933 -2.80088 -2.82965 -2.83331 -2.83196 -2.82536
internal_weight=808.327 111.372 696.955 67.7805 86.1745 33.6803 43.5912 28.0529 23.3494 34.1002 29.9007 28.5568 610.78 89.3661 81.303 68.0325 19.2339 10.2469 18.142 9.99489 15.0343 13.5225 8.06311 20.6617 48.7986 26.793 9.23898 22.0056 8.1471 77.0195 521.414 89.3661 11.0868
internal_count=9624 1326 8298 807 1026 401 519 334 278 406 356 340 7272 1064 968 810 229 122 216 119 179 161 96 246 581 319 110 262 97 917 6208 1064 132
is_linear=0
shrinkage=1


Tree=3
num_leaves=38
num_cat=0
split_feature=10 10 10 12 0 7 0 13 10 10 1 7 10 7 0 7 0 11 11 9 12 7 7 13 13 12 13 12 7 0 7 7 0 10 10 12 3
split_gain=891.688 92.4526 76.3926 28.223 25.9692 17.8033 14.8876 13.904 12.7228 11.4043 11.58 12.6376 7.24332 6.81839 14.6559 6.63398 6.07439 5.93953 9.87102 8.67802 5.88656 5.21054 7.38492 4.13068 3.05285 3.53797 3.17768 2.98954 3.3105 1.83397 1.64212 14.081 1.59961 0.992462 0.560716 0.212496 0.243152
threshold=39.479966936141132 30.894592619667595 46.254950866960748 37822.039892578134 22823.250000000004 59213.454912109381 51438.869140625007 233514.70153808597 36.598429506122308 41.862562977730427 28737.599609375004 43033.475703125005 49.18532382243113 22921.335732421878 16939.350585937504 21649.568745117191 49606.929687500007 1004.4249356692879 1285.1892564692137 39894.411518978945 41424.271746826176 28101.97024414063 27010.497832031255 6588581.14025879 828356.93371582043 82478.503796386736 2307002.0471191411 40954.914550781257 16814.164812011721 44995.189453125007 28534.226718750004 29553.587294921879 33351.800781250007 43.464988164046225 55.990889593216671 46941.647558593759 33401.414062500007
decision_type=8 10 8 10 2 10 2 2 10 10 2 10 8 10 2 8 2 10 10 10 10 10 8 2 2 8 2 10 10 2 10 10 2 10 8 10 2
left_child=1 7 9 8 13 6 -6 15 -3 10 24 32 27 14 -5 -1 -13 21 19 -19 -9 22 -11 -20 25 -2 -26 -4 -29 -30 -22 -32 -12 -23 35 -14 -37
right_child=2 3 12 4 5 -7 -8 20 -10 17 11 16 34 -15 -16 -17 -18 18 23 -21 30 33 -24 -25 26 -27 -28 28 29 -31 31 -33 -34 -35 -36 36 -38
leaf_value=0.046452282943064131 0.01757831854499281 0.062468089898224499 -0.011472030192867905 0.0021799953878124702 0.029298350158517672 0.0058786157394277372 0.06139164329721053 0.082787434214699099 0.030215592703434092 -0.0015267741188646333 0.020220534343668037 -0.0048951124029846796 -0.011726361215957399 -0.0061890550448688384 0.028506352488177098 0.017211018159563003 0.016894478278109425 -0.0018181977888632309 -0.010064422336711773 0.026404151818316318 0.070639699130986097 -0.0026879900243018434 0.018644939494256444 0.0079149387650872434 -0.011542099376964496 -0.002262083494788548 0.0048432424738821221 0.0082111206807221442 -0.0068090271592096269 0.00094060002217707407 0.021951373802081283 0.056430950714873744 0.039754960108285504 -0.0092465739905426784 -0.012134989839041902 -0.0087687310556187632 -0.011192750603634487
leaf_weight=7.1605899035930607 4.8063319474458703 8.9957130178809184 22.587209805846214 15.284521982073786 54.901768922805786 9.2401624396443349 5.0936020314693442 6.5545335486531249 10.976342834532259 42.911915726959705 5.9675641059875506 7.3171299770474416 67.419902339577675 6.1903168782591811 11.035501785576342 5.4588163197040567 7.3204594403505325 5.0313456803560284 9.7787576243281347 8.9714972749352437 6.9853728488087645 10.844616755843161 5.7459617853164664 5.6962259933352462 7.8980794027447683 5.2825259342789659 5.816490925848484 5.6093939691781989 46.18380268663168 11.600997112691401 6.1357921957969692 20.296987488865852 5.1512645930051804 27.976055413484573 357.40647796541452 65.401123069226742 42.291968084871769
leaf_count=67 48 84 231 150 532 90 48 60 106 433 59 73 689 61 107 53 73 50 98 90 66 109 58 57 79 53 58 57 468 118 59 189 51 283 3620 666 431
internal_value=7.58659e-07 0.0359988 -0.00801832 0.0272622 0.0231806 0.0292623 0.0327424 0.0555544 0.0464697 0.00257439 0.00959752 0.0176196 -0.0108704 0.00985536 0.0137085 0.0354816 0.00626607 -0.000440023 0.0063079 0.0166554 0.0611239 -0.00275185 0.00109088 -0.00336446 0.000633228 0.00770987 -0.00467488 -0.00603077 -0.00397653 -0.00525463 0.0551662 0.0492549 0.031214 -0.00750815 -0.0116417 -0.0105861 -0.00979381
internal_weight=959.327 174.31 785.017 121.718 101.746 69.2355 59.9954 52.5921 19.9721 166.516 49.5598 25.7564 618.501 32.5103 26.32 12.6194 14.6376 116.956 29.4778 14.0028 39.9727 87.4785 48.6579 15.475 23.8034 10.0889 13.7146 85.9814 63.3942 57.7848 33.4182 26.4328 11.1188 38.8207 532.519 175.113 107.693
internal_count=9624 1672 7952 1178 988 670 580 494 190 1672 494 256 6280 318 257 120 146 1178 295 140 374 883 491 155 238 101 137 874 643 586 314 248 110 392 5406 1786 1097
is_linear=0
shrinkage=0.0176368


Tree=4
num_leaves=41
num_cat=0
split_feature=4 12 4 4 4 12 12 12 12 12 12 11 4 4 1 0 1 12 4 6 11 11 4 4 12 2 4 12 4 7 12 4 2 6 12 4 12 4 4 2
split_gain=579.172 156.569 96.591 66.1683 43.7416 50.6138 38.7674 33.604 28.579 18.9856 12.5672 10.7689 10.4529 9.86488 10.6919 9.39105 9.39926 8.89005 16.5402 12.5661 8.10987 6.55402 6.10352 5.62479 6.64046 4.65467 4.2703 6.29902 4.1314 3.94723 3.41039 3.17578 2.79697 2.76653 2.17516 2.23076 2.16076 5.56801 2.10885 1.79561
threshold=70049.648437500015 63690.689135742192 118600.50781250001 112681.14453125001 40398.189453125007 35477.739428710942 98519.868603515642 37822.039892578134 64232.066674804693 79136.723297119155 55408.57572631837 163.58891749943322 49940.857421875007 145159.78308105472 20496.299804687504 31885.075195312504 42548.500000000007 30978.287011718752 28853.799804687504 10104.583447265626 270.75333345760106 498.25800697694893 79484.371093750015 145159.78308105472 81066.162304687503 27859.299804687504 98910.277343750015 101046.2009338379 137044.61718750003 38277.07350097657 33288.568286132817 66114.246093750015 36670.361328125007 10104.583447265626 81066.162304687503 56220.396484375007 44684.767523193368 33192.564453125007 15885.748046875002 38703.099609375007
decision_type=2 10 2 2 2 8 10 10 8 10 10 10 2 2 2 2 2 8 2 8 10 10 2 2 10 2 2 10 2 8 10 2 2 8 8 2 10 2 2 2
left_child=4 3 9 7 17 11 23 30 12 15 20 -6 29 -8 -15 25 -17 18 33 -20 -9 -13 -12 28 -25 -3 39 -28 -4 -7 -2 -14 -19 38 35 -10 37 -34 -1 -11
right_child=1 2 6 -5 5 8 13 10 34 26 22 21 31 14 -16 16 -18 32 19 -21 -22 -23 -24 24 -26 -27 27 -29 -30 -31 -32 -33 36 -35 -36 -37 -38 -39 -40 -41
leaf_value=0.0097754845042289096 -0.052473288148677764 -0.0047249221578374622 -0.022749642402961168 -0.045639883525403983 -0.026403859314412473 0.0084775705140248906 0.0038878198440313802 -0.011979733669048956 0.010395295782851021 0.0079134145356457731 0.00071963516327587052 0.0010562540586918035 -0.0013046120521762671 0.003315938650195581 -0.016760797617191472 -0.024298970930273178 -0.0046807056569426238 0.012364093177414348 -0.020994479353385321 0.0033686106175846581 -0.02615874360045534 -0.016581558423185584 -0.014082309852836041 -0.036004455322603518 -0.022449779571999576 0.009056016331551656 -0.0061422266835868709 0.007452231434437186 -0.0078804750511726664 0.0016344031851731871 -0.030482665981575473 -0.0089256540623739288 0.0099347532591163128 0.011751025449598313 0.012289225940547616 0.0048974540852415845 0.011204430408694498 0.00084539470098633524 0.0029122715526968693 -0.00049934953660441808
leaf_weight=25.678152874112129 9.5415807664394396 29.713123053312302 27.662138149142265 51.453759655356407 16.25970646739006 50.401811763644218 16.748858794569969 19.63530096411705 59.371848195791245 67.16145783662796 12.432434588670729 12.784907758235933 116.41544851660728 10.626325383782385 32.715694054961205 14.418337330222132 16.228445589542389 273.07261617481709 10.266133546829225 15.929069042205809 48.723174855113029 12.452662736177443 27.007566750049591 27.874407202005386 29.849022939801216 9.4340771287679654 23.039320841431618 18.393980130553246 8.7470974624156934 55.041822269558907 9.0754038989543897 19.303538769483566 86.279593482613564 55.614133521914482 80.598917528986931 41.430908709764481 134.36706618964672 27.930344596505165 31.851354777812958 8.7410228848457319
leaf_count=152 53 173 157 284 93 298 97 112 352 395 72 74 682 62 188 83 94 1622 60 94 276 72 154 156 169 55 134 108 50 324 51 112 512 330 478 245 797 165 188 51
internal_value=-2.32256e-06 -0.0153978 -0.00837377 -0.0287853 0.00710795 0.00294977 -0.0186724 -0.021697 0.00478306 0.000151903 -0.0176856 -0.015467 0.000796252 -0.00746852 -0.011857 -0.00708665 -0.0142768 0.0100202 0.00600524 -0.00647955 -0.0222629 -0.00785626 -0.00947969 -0.0257068 -0.0293737 -0.00128841 0.00447809 -7.34858e-05 -0.019415 0.00494511 -0.0433442 -0.00243371 0.0110819 0.00892226 0.0100565 0.00819132 0.00963943 0.00773486 0.00606706 0.00694428
internal_weight=1644.27 519.223 341.353 177.869 1125.05 464.062 154.224 126.415 422.564 187.13 107.798 41.4973 241.163 60.0909 43.342 69.794 30.6468 660.988 139.339 26.1952 68.3585 25.2376 39.44 94.1327 57.7234 39.1472 117.336 41.4333 36.4092 105.444 18.617 135.719 521.65 113.144 181.402 100.803 248.577 114.21 57.5295 75.9025
internal_count=9624 2974 1972 1002 6650 2730 879 718 2491 1093 614 239 1416 347 250 405 177 3920 824 154 388 146 226 532 325 228 688 242 207 622 104 794 3096 670 1075 597 1474 677 340 446
is_linear=0
shrinkage=0.0176368


Tree=5
num_leaves=32
num_cat=0
split_feature=10 10 10 2 13 10 6 11 13 13 11 5 7 2 2 13 10 6 2 10 13 10 7 13 10 10 7 7 11 10 10
split_gain=1103.86 92.0959 75.6285 20.6684 17.9315 14.8193 13.089 12.5441 11.8005 19.2211 11.5189 12.0302 11.513 10.2817 8.87118 17.9043 7.66365 7.09976 7.0071 6.35599 3.82542 3.23887 2.3462 7.24329 1.65736 2.10867 2.07849 1.38811 0.809992 0.256766 0.21895
threshold=66.401599771894638 60.900318828199048 73.016686737243973 43602.000000000007 43204.760986328132 56.684520634878574 45957.833906250009 1248.2235948705832 3931641.7966308598 3400525.8835449223 363.92375621557841 23707.139892578129 40138.952119140631 58542.355468750007 22162.650390625004 5906953.9733886728 68.291390342660762 8470.7084033203155 60329.500000000007 58.959692379183508 3617012.2700195317 63.857547683308887 16908.775002441409 1083395.499145508 58.355584725706329 56.968005015779276 40215.595371093754 21484.385483398441 592.79008998550864 52.659201848998556 52.933119830837704
decision_type=10 10 10 2 2 10 10 10 2 2 10 10 10 2 2 2 10 10 2 8 2 10 8 2 10 10 8 10 10 10 10
left_child=1 5 3 8 -4 29 -5 24 9 17 20 -12 21 -14 -6 28 -10 -2 -8 -9 22 -13 23 -3 25 -7 -26 -24 -16 -1 -31
right_child=2 10 4 6 14 7 18 19 16 -11 11 12 13 -15 15 -17 -18 -19 -20 -21 -22 -23 27 -25 26 -27 -28 -29 -30 30 -32
leaf_value=-0.012429002449612991 0.017360845995061346 0.019913024692901005 0.033941802637385679 -0.0010748529407904992 0.087905046382618965 0.0002855481315015392 0.040934179448704193 0.024833954548885335 0.031372422735877592 0.001943042250359123 0.035189987043834525 -0.0046400585520130688 0.025732036934389621 0.0024581914871267285 0.061320048078792669 0.09267588318887475 0.066619914473837555 0.044844232419143155 0.012848444940161782 -0.0015176061778666833 0.014675347660506578 0.0085132472818849631 -0.011455199848024601 -0.0048415100298859889 -0.0016038583966010325 -0.011548193153269434 -0.010292938556158185 -0.00035840513647592259 0.043061961389111815 -0.0060903854040359881 -0.011085265260455553
leaf_weight=427.04477756470442 4.8658901751041439 4.4322711303830209 7.0390886217355719 6.2577453926205662 12.338605388998984 5.4756696447730056 7.0134656205773336 5.6395819038152668 5.086693048477172 4.750176139175891 6.1028712615370742 13.941758327186109 16.556663647294048 9.2777620926499349 11.55432096868754 5.7132936343550673 10.065283447504042 23.078410767018795 5.8637590780854225 4.9526248425245294 4.1297860741615287 8.9106739982962591 8.4532651752233487 12.032729290425776 29.298334591090679 28.157082304358482 11.659164756536482 5.8625282868742934 14.640454627573488 6.2744225412607184 81.552057944238186
leaf_count=5144 55 53 79 72 135 66 80 67 58 55 72 166 195 109 127 62 112 261 67 59 49 105 101 144 353 340 141 70 163 76 988
internal_value=3.36608e-06 -0.00854634 0.0496134 0.0365471 0.0659105 -0.0110375 0.0198569 -0.00417029 0.0428111 0.0351973 0.00806862 0.0130595 0.00979371 0.0176883 0.0703475 0.0617122 0.0568178 0.0406416 0.0295626 0.013184 0.000117122 0.000578946 -0.0021224 0.00236939 -0.00674468 -0.00964605 -0.00422469 -0.00717596 0.0525895 -0.0121654 -0.0107864
internal_weight=808.021 689.754 118.267 66.9814 51.2858 600.054 19.135 85.1825 47.8465 32.6945 89.7003 54.7897 48.6869 25.8344 44.2467 31.9081 15.152 27.9443 12.8772 10.5922 34.9106 22.8524 30.7808 16.465 74.5903 33.6328 40.9575 14.3158 26.1948 514.871 87.8265
internal_count=9624 8298 1326 760 566 7234 219 1026 541 371 1064 647 575 304 487 352 170 316 147 126 417 271 368 197 900 406 494 171 290 6208 1064
is_linear=0
shrinkage=0.0176368


Tree=6
num_leaves=41
num_cat=0
split_feature=10 4 12 10 4 4 12 4 12 12 4 4 4 12 12 1 12 4 10 4 4 5 7 11 10 5 10 10 12 4 6 12 4 10 10 0 5 11 10 10
split_gain=845.083 355.191 89.0778 75.8313 63.7413 44.322 38.2222 44.767 25.964 19.1239 32.2688 11.7553 10.6477 15.9859 9.88343 9.69604 9.35728 9.00129 30.2732 8.78203 8.03936 7.92031 6.80365 6.3614 5.90937 3.95324 3.95184 3.8886 5.91259 3.66201 2.48975 2.10077 1.66928 4.01264 1.05427 0.991523 0.875203 0.85266 0.803469 0.536433
threshold=39.479966936141132 66631.687500000015 84539.390795898464 46.254950866960748 87213.523437500015 124821.42187500001 39483.577539062513 33192.564453125007 77127.892254638675 56597.155419921881 90705.402343750015 48341.064453125007 40398.189453125007 66352.202569580098 49311.789544677747 9724.7998046875018 117253.84276123049 102685.92578125001 49.022705375853491 109894.33984375001 107093.92187500001 21391.210009765629 42878.713652343758 1004.4249356692879 33.983843297702059 61890.542968750007 41.154765623374232 55.990889593216671 66352.202569580098 55074.111328125007 23511.980957031254 45401.120019531263 66114.246093750015 49.18532382243113 47.495322515183979 22356.750000000004 22126.514892578129 771.15933067298204 31.340660085067565 61.584747121287407
decision_type=8 2 10 8 2 2 8 2 10 10 2 2 2 10 10 2 10 2 10 2 2 10 8 10 10 10 10 10 10 2 10 8 2 10 10 2 8 8 10 10
left_child=1 6 9 4 11 30 7 15 20 -3 37 25 31 29 22 -1 35 32 -19 -10 -6 -21 -13 -16 -12 26 -2 28 -20 -14 -4 -8 -5 34 -34 -7 -15 -11 -33 -35
right_child=3 2 5 17 8 16 12 -9 19 10 24 14 13 36 23 -17 -18 18 27 21 -22 -23 -24 -25 -26 -27 -28 -29 -30 -31 -32 38 33 39 -36 -37 -38 -39 -40 -41
leaf_value=0.021060912351010274 0.00047028840252940366 0.082802417550548041 -0.0052699868781860958 -0.012233588789637311 0.024965081056642975 0.038319684907371379 0.0023572569200099609 0.054178550042796397 -0.0062017019592856201 0.036062388333984841 0.078305580691309343 0.0049950219011159125 0.010986907829728635 -0.011130565627918785 -0.0057584850507094174 -0.0090428104117718441 0.023541660018301627 0.024980460017169123 0.013038158249508349 0.00082166406257901711 0.056861880251288639 0.02857355711897399 0.031861605698240002 0.0098632620814688102 0.049479620195523294 0.0061951111831149352 -0.0095816224373053097 -0.011302199982736063 -0.0076912846766907638 0.026863069326013109 0.010494262317877902 -0.0018365115810906807 -0.0055555782071764681 -0.0090596220331030687 0.0040977895571777667 0.06624978548347342 -0.0021848027370920315 0.018907141233920309 -0.010202935912196611 -0.012441195655517037
leaf_weight=5.2707401067018527 14.718218743801115 27.740400895476341 5.338275574147703 423.15083792805672 6.9901096522808057 5.3086794838309306 6.9020985588431385 10.191343180835245 6.2316068708896664 5.5893953517079327 16.191134870052341 6.750275053083894 13.789310656487944 5.6323444694280598 23.688923463225365 6.7836500778794289 5.3400793671607962 8.3922905698418599 5.091528087854388 5.1530228778719893 6.4832560569047928 8.0235652774572355 5.0057012736797342 11.397189326584337 9.602886348962782 6.283715531229972 65.855514638125896 57.609912604093552 15.427178449928759 7.9526295661926261 5.7298722118139267 5.0401575788855579 5.6025113463401777 46.248422995209694 7.1634241938591003 6.7371842265129089 8.591788686811924 5.1200294271111497 17.541385218501091 43.321978695690632
leaf_count=50 148 231 53 4385 67 49 69 90 63 52 137 66 134 57 240 67 49 81 49 51 59 77 49 113 86 63 676 571 156 75 55 50 57 473 72 59 85 48 176 436
internal_value=3.17807e-06 0.0343193 0.058253 -0.00797213 0.00256725 0.0310583 0.00874101 0.0283106 0.02428 0.0698023 0.0584673 -0.00287398 0.00184229 0.008212 0.0041997 0.00454686 0.0480466 -0.0108411 -0.00549315 0.0105216 0.0424964 0.0183666 0.0176713 -0.000574963 0.0692635 -0.00669627 -0.00775331 -0.00897443 -0.00225583 0.017502 0.00300557 -0.00592644 -0.0117119 -0.00947918 -0.000183432 0.0568939 -0.00612628 0.0296415 -0.00846872 -0.0107876
internal_weight=958.983 180.393 92.6979 778.589 166.581 28.4541 87.6954 22.2457 32.8816 64.2438 36.5034 133.7 65.4497 35.9661 46.8421 12.0544 17.3859 612.008 86.5209 19.4082 13.4734 13.1766 11.756 35.0861 25.794 86.8574 80.5737 78.1286 20.5187 21.7419 11.0681 29.4836 525.487 102.336 12.7659 12.0459 14.2241 10.7094 22.5815 89.5704
internal_count=9624 1672 819 7952 1672 265 853 207 317 554 323 1355 646 351 468 117 157 6280 857 191 126 128 115 353 223 887 824 776 205 209 108 295 5423 1038 129 108 142 100 226 909
is_linear=0
shrinkage=0.0176368


Tree=7
num_leaves=41
num_cat=0
split_feature=4 12 4 4 4 12 12 12 12 12 4 13 3 4 4 3 12 4 12 5 12 12 7 1 13 1 13 7 13 4 12 13 13 9 8 13 1 6 12 4
split_gain=557.578 144.57 91.5009 59.068 43.1418 48.7284 36.0899 33.3269 28.1269 18.3734 12.9744 10.4959 12.3627 10.1559 9.4345 10.6634 8.88467 20.4859 8.51653 8.36254 9.60466 8.15461 8.73682 7.76499 7.48606 7.49628 6.71922 4.97455 4.38948 4.19196 6.1032 4.10047 3.66117 3.45197 8.56333 3.81453 2.55656 2.53434 2.27962 4.8811
threshold=70049.648437500015 63690.689135742192 118600.50781250001 107093.92187500001 40398.189453125007 35477.739428710942 98519.868603515642 42182.466870117198 64232.066674804693 79136.723297119155 82405.792968750015 4130834.3455810552 45988.484375000007 49940.857421875007 145159.78308105472 20603.850585937504 26122.980053710944 28136.561523437504 55712.593310546879 19090.457031250004 28938.488110351569 33288.568286132817 31216.34948242188 41884.119140625007 -76381.408691406235 23383.400390625004 3203729.8854980473 19444.142753906253 4224351.6005859384 98910.277343750015 101046.2009338379 6457869.7736816416 7231592.6068115244 16602.662011631037 26857.982598352344 4906502.1859130869 28368.400390625004 9790.435947265627 45401.120019531263 33192.564453125007
decision_type=2 10 2 2 2 8 10 10 8 10 2 2 2 2 2 2 8 2 10 10 10 10 8 2 2 2 2 10 2 2 10 2 2 10 10 2 2 8 8 2
left_child=4 3 9 7 16 19 24 21 13 11 26 36 -13 31 -8 -16 17 37 -12 20 -6 -2 -23 -21 27 -26 -9 -4 -15 -11 -31 -7 38 -5 -35 -36 -3 -1 39 -18
right_child=1 2 6 33 5 8 14 10 -10 29 18 12 -14 28 15 -17 32 -19 -20 23 -22 22 -24 -25 25 -27 -28 -29 -30 30 -32 -33 -34 34 35 -37 -38 -39 -40 -41
leaf_value=0.0050367976564786804 -0.049328423809612942 -0.0040510380338573881 -0.0059050411796499969 -0.055278196258291022 -0.033737351697036774 0.0065019389703475511 0.0038532399749426766 0.0050839850662660517 0.010002840781508681 0.0068851327604114729 -0.02603891162142638 -0.022423957721409874 0.001233230253411101 0.0012958187522632458 0.0021221150295494809 -0.016928893874329432 0.01086779860579298 -0.01451318152246964 -0.010310816077326647 0.0052503771605301635 -0.0086606755790062089 -0.014638582543595688 -0.038046972810593292 -0.015492360710252447 -0.039601855474589699 -0.024188883806371537 -0.010949722684790296 -0.022091913883473625 -0.0050828655692923327 -0.0060094234673231791 0.0073843367612788369 -0.0025375756219603927 0.0027782246215608754 -0.023698096138091946 -0.035833716980998728 -0.051884067309828544 0.0052134977780102952 0.012494555610256012 0.012124632713779934 0.0048242484557212174
leaf_weight=31.763794749975204 10.03209415078163 26.859454125165939 10.577308610081674 9.1039595752954465 10.998311489820482 86.430189028382301 16.697410598397255 10.845978155732153 179.70592440664768 75.392723128199577 30.146631047129631 20.085897788405422 10.101486414670942 57.721261069178581 12.52394264936447 31.329576507210732 226.51953716576099 14.062188312411307 18.817856788635254 8.993087515234949 9.1934766769409162 10.817396193742754 11.71597784757614 12.934222608804701 14.993104711174963 55.401538193225861 27.658354982733727 15.315006896853445 78.36895877122879 23.181562095880508 18.240196347236633 18.530265316367149 18.328036859631538 13.1799209266901 25.057410091161728 15.247043937444685 13.208119258284567 28.059794127941132 282.11384303867817 53.329284727573395
leaf_count=189 53 156 59 48 61 513 97 62 1075 446 167 114 58 337 73 177 1359 82 106 52 52 60 64 74 82 306 157 85 457 134 108 109 109 71 134 80 77 169 1695 317
internal_value=-5.21283e-06 -0.0149556 -0.00818944 -0.0276111 0.00704666 0.00291846 -0.018091 -0.0201509 0.00473668 0.00014849 -0.0142649 -0.00693465 -0.0146552 0.000790606 -0.00729011 -0.0115348 0.00996051 0.00413705 -0.0202448 -0.015005 -0.0230458 -0.0352824 -0.0276464 -0.00707487 -0.0247723 -0.0278538 -0.0064132 -0.0158404 -0.00238231 0.00442841 -7.66276e-05 0.00489597 0.0106951 -0.0415111 -0.03844 -0.0427387 -0.000948871 0.0086506 0.0109487 0.00973316
internal_weight=1643.58 526.53 343.907 182.623 1117.05 462.876 156.838 120.034 420.757 187.069 87.4688 70.255 30.1874 241.051 60.5509 43.8535 654.176 73.8858 48.9645 42.1191 20.1918 32.5655 22.5334 21.9273 96.287 70.3946 38.5043 25.8923 136.09 116.814 41.4218 104.96 580.291 62.5883 53.4844 40.3045 40.0676 59.8236 561.963 279.849
internal_count=9624 2974 1972 1002 6650 2730 879 669 2491 1093 492 405 172 1416 347 250 3920 440 273 239 113 177 124 126 532 388 219 144 794 688 242 622 3480 333 285 214 233 358 3371 1676
is_linear=0
shrinkage=0.0176368


Tree=8
num_leaves=34
num_cat=0
split_feature=10 4 10 4 4 10 7 11 11 4 10 4 11 4 11 7 11 11 10 2 11 11 7 4 0 0 10 7 5 4 10 4 10
split_gain=1033.97 217.258 90.9379 54.054 53.0527 27.5141 19.2293 18.9239 25.3148 16.3024 14.8597 18.6847 14.745 14.4748 10.6082 10.1486 9.33335 8.22702 6.80106 5.06904 4.87762 9.32253 4.08205 3.19565 2.31278 9.3053 1.65823 1.28679 1.25099 0.898623 0.265338 1.527 1.45792
threshold=66.401599771894638 75214.203125000015 60.900318828199048 41920.990234375007 80244.289062500015 67.931612770080122 45291.358066406254 170.42856059312535 450.98908635590311 99924.855468750015 56.684520634878574 107093.92187500001 152.67746390272222 29113.989257812504 1406.9470680503905 19849.148950195315 1023.1572901134007 626.82523434046641 63.286321559524161 58542.355468750007 367.14100805877484 412.72273631121647 19984.969750976565 36344.492187500007 34681.005859375007 20599.350585937504 70.551763599597763 34985.799038085948 43346.555761718751 34879.078125000007 52.659201848998556 95757.589843750015 54.06153449976005
decision_type=10 2 10 2 2 10 10 10 10 2 10 2 10 2 10 10 8 8 10 2 10 10 8 2 2 2 10 10 8 2 10 2 10
left_child=2 3 10 12 6 -5 22 -7 -9 24 30 14 26 -8 29 -6 28 -17 -19 -15 -11 -22 23 -4 25 -3 -2 -24 -14 -12 -1 -32 -33
right_child=1 9 4 5 15 7 13 8 -10 20 11 -13 16 19 -16 17 -18 18 -20 -21 21 -23 27 -25 -26 -27 -28 -29 -30 -31 31 32 -34
leaf_value=-0.012418664564469781 0.016624492384799978 0.059044111836029832 -0.0054973617439808666 0.0050852546895604964 0.0071203511652299014 0.077576728957313851 -0.0076034498788388584 0.012090840606632659 0.050832840721878693 0.099643115692969325 -0.011059510750815007 0.020099221333137435 0.00029184622162051541 0.037123518533339284 0.016113683190810673 0.054872359682970627 0.02032004601100033 0.006864894906605727 0.038291931650847044 0.011203210450881029 0.039043675929871319 0.078014415855405445 -0.011141506809350681 0.0072971770698741978 0.067235123074521883 0.021132523177393874 0.036140299085278937 -0.0035131135701558748 -0.0088319160202090848 -0.0066957169466000293 -0.011657545300394173 0.0035347844196137153 -0.0088993972718869087
leaf_weight=421.94501301646233 5.0086674988269788 4.8002417460083979 10.726053752005102 5.7749094143509856 4.1994528695940998 5.6147798001766231 4.8289015591144588 8.2061602920293826 17.474937550723553 11.429967813193796 30.894989177584648 8.1812859475612623 12.337691426277166 6.543720491230486 5.1159005090594283 6.4554320648312542 6.5086432620882979 4.265509620308876 4.6378911510109901 4.8384211584925652 4.894146233797076 18.029624618589878 19.482663184404377 12.179727949202059 7.1019514277577391 5.2763162031769753 4.8742456957697868 12.100893691182135 6.672867812216281 40.525695145130157 75.722353987395763 4.2124244347214681 6.8336192592978477
leaf_count=5144 57 50 130 67 48 56 58 91 187 111 379 94 143 75 60 72 74 49 51 56 50 179 236 145 73 56 53 144 79 493 932 50 82
internal_value=6.37193e-06 0.0467059 -0.00850452 0.0265831 0.00793637 0.0412882 0.000708115 0.0476858 0.0391511 0.0742234 -0.0110125 -0.00412094 0.0106458 0.0171383 -0.00688202 0.0330709 0.00326079 0.0394913 0.0249528 0.0274894 0.0825633 0.0711879 -0.00433708 0.00130566 0.0548094 0.0420251 0.0281278 -0.00837725 -0.0031024 -0.00868238 -0.0121518 -0.0107561 -0.00420181
internal_weight=807.695 124.005 683.69 72.4729 90.2587 37.0708 70.7004 31.2959 25.6811 51.5322 593.431 84.7179 35.4021 16.211 76.5366 19.5583 25.5192 15.3588 8.9034 11.3821 34.3537 22.9238 54.4893 22.9058 17.1785 10.0766 9.88291 31.5836 19.0106 71.4207 508.713 86.7684 11.046
internal_count=9624 1326 8298 807 1064 401 844 334 278 519 7234 1026 406 189 932 220 296 172 100 131 340 229 655 275 179 106 110 380 222 872 6208 1064 132
is_linear=0
shrinkage=0.0176368


Tree=9
num_leaves=41
num_cat=0
split_feature=10 10 10 12 0 7 12 13 10 12 0 7 10 7 10 0 7 0 10 11 11 8 7 7 13 10 12 7 13 11 0 8 7 0 10 10 7 3 9 5
split_gain=802.104 76.8583 67.457 15.3194 14.8102 15.6893 17.6421 19.3799 10.9651 9.67375 8.95881 11.7283 8.6008 8.32355 7.32281 6.97312 7.45796 7.3447 6.94765 5.58583 9.38259 8.68194 5.17132 7.17159 4.00576 2.97761 2.96867 3.27417 2.93052 2.84774 2.64853 2.14837 2.84869 1.82081 0.97927 0.586845 0.394241 0.461362 0.0643791 1.24942
threshold=39.835792473768208 33.149190591249059 46.254950866960748 40954.914550781257 29228.349609375004 59213.454912109381 56597.155419921881 4760534.1047363291 30.894592619667595 32327.259521484379 16939.350585937504 20981.34177734375 41.862562977730427 36720.429741210944 49.18532382243113 28427.049804687504 40966.494765625008 48029.875000000007 32.472384703274621 1004.4249356692879 1285.1892564692137 39987.55265884089 28101.97024414063 27010.497832031255 6588581.14025879 36.598429506122308 40954.914550781257 16814.164812011721 4808358.2326660166 1084.3932949187642 26238.250000000004 9700.2566547393599 19984.969750976565 44995.189453125007 43.464988164046225 55.990889593216671 36235.574077148449 11318.084960937502 8408.0304040610754 7623.7592285156252
decision_type=8 10 8 8 2 10 10 2 10 10 2 10 10 10 8 2 10 2 8 10 10 10 10 8 2 10 10 10 2 10 2 10 8 2 10 8 8 2 8 10
left_child=1 3 12 -1 9 6 7 -6 28 -3 25 -12 15 -8 26 31 -17 -18 30 22 21 -21 23 -14 -22 -11 -4 -28 29 -5 -10 -2 -33 -29 -24 36 37 -16 39 -37
right_child=2 4 14 8 5 -7 13 -9 18 10 11 -13 19 -15 35 16 17 -19 -20 20 24 -23 34 -25 -26 -27 27 33 -30 -31 -32 32 -34 -35 -36 38 -38 -39 -40 -41
leaf_value=0.063957544506491978 -0.0079591049410597144 0.031325275911552042 -0.01141440517000937 0.044341135439090386 0.025528370709192071 0.0077518598782657776 0.036692607046732238 0.060297739654966105 0.0073102991748449442 0.0094444740439091936 0.03698527528800797 0.010517891880301288 -0.0014384770061247156 0.012817850344542607 -0.012215765760164293 0.028350365077356859 -0.004944760107555686 0.019525508186512747 0.043084896286742391 -0.0021000512305012343 -0.010038140045603371 0.02575652326377547 -0.002645269674747406 0.018379262188887139 0.0076205895600096945 -0.0050699595395541563 0.0082612555122159766 -0.0067143437800975857 0.061444700790311363 0.025667774786050798 0.024641865789183419 0.013717131823342698 -0.0014071711104246163 0.0010348034284661926 -0.0091818061602912098 -0.012006286644383819 -0.011917662025069942 -0.0088058100383541713 -0.012230779616229787 -0.0014008170843127379
leaf_weight=12.912497244775293 5.0941049307584789 9.0607315152883512 21.979204289615154 36.424570314586163 11.922626942396166 10.024398453533648 6.5747102946043041 11.204030595719813 4.9943503290414837 6.8192250430583981 6.5322644561529186 22.405698902904987 42.58858136087656 16.168911032378674 23.335636168718338 8.0691278800368327 7.3600453510880453 6.6566740721464157 6.3655336350202552 5.1792484372854259 9.6986271589994413 9.1272179186344129 10.796131812036036 5.799073912203311 5.7838759794831267 9.7731550931930524 5.5943837612867346 45.531663663685322 6.7338208705186835 6.8206194788217536 9.3920912072062475 5.6169534996151897 9.5172145441174507 11.520318590104578 27.548629745841026 14.760432951152326 62.91670099645853 84.878742545843124 330.15675839036703 4.8263237178325644
leaf_count=105 52 82 231 316 108 94 60 99 48 64 60 213 433 151 245 77 73 65 57 51 98 89 109 58 57 95 57 468 54 58 84 56 95 118 283 153 657 884 3418 49
internal_value=5.27259e-06 0.0319501 -0.00813074 0.0447241 0.0220435 0.0284865 0.0328153 0.0437328 0.0405833 0.0151478 0.0114719 0.0172765 0.00208968 0.0206721 -0.0108117 0.00882637 0.0155117 0.00704686 0.0278429 -0.000393724 0.00610079 0.0160391 -0.00266122 0.00116961 -0.00337185 0.00102213 -0.00591126 -0.00386419 0.0453836 0.0418847 0.0193002 0.00122021 0.00455978 -0.00514995 -0.00743563 -0.0115976 -0.010516 -0.00962234 -0.0121025 -0.00955706
internal_weight=958.465 194.129 764.336 83.6435 110.486 55.8947 45.8703 23.1267 70.731 54.5911 45.5303 28.938 158.836 22.7436 605.5 42.3141 22.0858 14.0167 20.752 116.521 29.789 14.3065 86.7324 48.3877 15.4825 16.5924 84.6256 62.6464 49.979 43.2452 14.3864 20.2283 15.1342 57.052 38.3448 520.875 171.131 108.214 349.744 19.5868
internal_count=9624 1748 7876 722 1026 512 418 207 617 514 432 273 1596 211 6280 418 215 138 189 1178 295 140 883 491 155 159 874 643 428 374 132 203 151 586 392 5406 1786 1129 3620 202
is_linear=0
shrinkage=0.0176368


Tree=10
num_leaves=41
num_cat=0
split_feature=4 12 4 4 4 12 12 12 12 12 4 13 3 4 4 3 12 4 6 12 5 12 0 13 1 12 7 13 13 4 12 13 6 1 12 12 4 4 12 4
split_gain=528.227 131.351 84.7994 51.0719 42.4576 46.6483 32.8381 27.6019 27.0191 17.6001 10.7116 9.90163 11.6985 9.79438 8.99144 9.93645 8.90327 15.9895 11.7752 7.86684 7.70973 8.77633 7.47503 6.74154 6.68716 5.63787 4.65706 4.57248 4.23704 4.05596 5.8776 4.01699 2.74436 2.47214 2.3672 2.20857 2.24057 2.14888 3.22535 2.09215
threshold=70049.648437500015 63690.689135742192 118600.50781250001 112681.14453125001 40398.189453125007 35477.739428710942 98519.868603515642 64232.066674804693 37822.039892578134 79136.723297119155 79484.371093750015 4130834.3455810552 45988.484375000007 49940.857421875007 145159.78308105472 20603.850585937504 30978.287011718752 28853.799804687504 10104.583447265626 45035.57531738282 19090.457031250004 28938.488110351569 41975.554687500007 -76381.408691406235 23383.400390625004 55408.57572631837 19444.142753906253 7231592.6068115244 4224351.6005859384 98910.277343750015 101046.2009338379 6457869.7736816416 10104.583447265626 28368.400390625004 33288.568286132817 81066.162304687503 56220.396484375007 31341.934570312504 44684.767523193368 15885.748046875002
decision_type=2 10 2 2 2 8 10 8 10 10 2 2 2 2 2 2 8 2 8 10 10 10 2 2 2 10 10 2 2 2 10 2 8 2 10 8 2 2 8 2
left_child=4 3 9 8 16 20 23 13 34 11 19 33 -13 31 -8 -16 17 32 -19 -10 21 -6 -22 26 -25 -12 -4 37 -15 -11 -31 -7 39 -3 -2 36 -9 -18 -39 -1
right_child=1 2 6 -5 5 7 14 35 10 29 25 12 -14 28 15 -17 27 18 -20 -21 22 -23 -24 24 -26 -27 -28 -29 -30 30 -32 -33 -34 -35 -36 -37 -38 38 -40 -41
leaf_value=0.0096468762879006482 -0.046021626005443406 -0.0039163772119816219 -0.005573425508836178 -0.040251354590635467 -0.032124798188233467 0.0064218618706911442 0.0038866418337377734 0.010271951486487152 -0.021875078501045822 0.0068203754816063503 -0.023892396930489727 -0.021550775527362811 0.0013210280853438933 0.0012812503403550131 0.0021307052679697446 -0.016193296414621049 0.012236534043950541 -0.020206333800172907 0.0032683648841085257 -0.0032150682534686304 0.0052353467514225718 -0.0083858408790805049 -0.015068641850348813 -0.037226977502331456 -0.022950224155148656 -0.01319366556209222 -0.021059870858955505 0.0017730144676139166 -0.0049814133631186893 -0.0058025139546962123 0.0073359020820061259 -0.0025302848618066745 0.011630076900175795 0.0051906175073858016 -0.027693479843677007 0.012203617459327356 0.0047173293902461211 0.005886556536324028 0.011144446088456319 0.0027582734456703534
leaf_weight=25.119426235556602 10.596569210290911 27.042352139949799 10.746366634964945 56.380724191665649 11.386406779289247 85.678723469376564 16.743000879883766 58.014299049973488 8.950796112418173 74.838044017553329 48.211024984717369 20.565150737762455 10.163888961076735 57.653654083609581 12.531399086117743 32.05395096540451 302.77086591720581 10.503939449787142 15.793346107006071 27.061649143695831 8.9759723395109194 9.3024347126483899 13.118383720517157 15.685564324259756 57.160053282976151 27.838707625865936 15.755286067724226 16.712213754653931 78.744143798947334 23.405272096395493 18.130171850323677 18.53653846681118 53.952001303434372 13.175883218646048 9.6923425346612913 78.631663575768471 40.741979524493217 54.13435834646225 134.49915485084057 31.462247759103775
leaf_count=152 53 156 59 284 61 513 97 352 49 446 258 114 58 337 73 177 1850 60 94 153 52 52 74 82 306 154 85 100 457 134 108 109 330 77 51 478 245 326 820 188
internal_value=-8.5159e-06 -0.0143531 -0.00789776 -0.0261769 0.00695904 0.0028627 -0.0172668 0.00466541 -0.0199884 0.000172829 -0.0163917 -0.00670861 -0.0141205 0.000765261 -0.0069934 -0.0110841 0.0098785 0.00582924 -0.00639023 -0.00820936 -0.014522 -0.022125 -0.00690125 -0.0235066 -0.0263721 -0.0201454 -0.015115 0.0109582 -0.00233892 0.00438712 -3.0889e-05 0.00481944 0.00876284 -0.000884008 -0.0385635 0.00992848 0.00803612 0.0112667 0.00966632 0.0059078
internal_weight=1642.46 536.728 347.996 188.732 1105.73 460.784 160.676 418.001 132.351 187.321 112.062 70.9473 30.729 240.613 61.3284 44.5854 644.948 136.831 26.2973 36.0124 42.7832 20.6888 22.0944 99.3473 72.8456 76.0497 26.5017 508.117 136.398 116.373 41.5354 104.215 110.534 40.2182 20.2889 177.388 98.7563 491.404 188.634 56.5817
internal_count=9624 2974 1972 1002 6650 2730 879 2491 718 1093 614 405 172 1416 347 250 3920 824 154 202 239 113 126 532 388 412 144 3096 794 688 242 622 670 233 104 1075 597 2996 1146 340
is_linear=0
shrinkage=0.0176368


Tree=11
num_leaves=34
num_cat=0
split_feature=10 4 10 4 4 11 13 13 11 7 10 4 4 10 4 11 7 11 11 10 13 11 7 4 7 13 4 7 6 4 10 4 4
split_gain=971.391 177.9 89.815 48.6956 48.5583 26.8581 34.3175 22.2036 25.1851 18.6192 14.8979 17.695 13.683 11.3496 10.8724 10.3853 9.1205 7.06398 6.9166 6.21103 6.09053 5.49459 4.90187 4.31823 4.02969 3.64183 2.37913 1.28938 1.27119 0.890298 0.273663 1.79498 0.284271
threshold=66.401599771894638 48614.835937500007 60.900318828199048 80244.289062500015 99924.855468750015 159.82095045193617 4224351.6005859384 6432576.2272949228 152.67746390272222 45291.358066406254 56.684520634878574 107093.92187500001 29113.989257812504 68.633221308493106 39054.521484375007 1406.9470680503905 19849.148950195315 632.44502940610994 294.89752558293407 63.286321559524161 1791408.9614257815 385.8818567935665 51953.849169921879 28136.561523437504 19984.969750976565 3642087.4250488286 23409.216796875004 34985.799038085948 31740.571640625003 34879.078125000007 52.659201848998556 132610.47656250003 77275.398437500015
decision_type=10 2 10 2 2 10 2 2 10 10 10 2 2 10 2 8 10 10 10 10 2 10 10 2 8 2 2 10 10 2 10 2 2
left_child=2 7 10 9 5 -3 18 8 23 24 30 15 -11 -8 26 29 -5 -18 -7 -19 21 -6 -14 -2 25 -4 -10 -26 -16 -12 -1 32 -32
right_child=1 4 3 16 20 6 13 -9 14 12 11 -13 22 -15 28 -17 17 19 -20 -21 -22 -23 -24 -25 27 -27 -28 -29 -30 -31 31 -33 -34
leaf_value=-0.012408403947488289 0.017473427793484694 0.080780848126805554 -0.0020703977819317111 0.0068397387642537694 0.070931783961355202 0.0318705520702064 0.027899554218650733 0.04437613948178213 0.003852502535041226 -0.00753153879686833 -0.011021814974501035 0.019096026853534429 0.011839860777364633 0.060847558061528265 0.0067477166285733305 0.015788748120016967 0.051056319681063091 0.0065772893704748401 0.0090447736251027203 0.036207523480555545 0.082109583527380028 0.037506245400474744 0.036815598668181217 0.042964844302245737 -0.011108287142756849 0.015084201859698406 -0.01068094411686092 -0.0034397216673343646 0.021558178044057068 -0.0066520019043206646 -0.011824250333901689 0.00069469183191994818 -0.0076536503697554837
leaf_weight=416.80341552197933 6.0143625065684301 5.9584893807768813 18.799196682870392 4.2676396295428303 5.901845343410967 7.3891705647110966 6.4491255953907993 6.2288038432598105 4.1166506260633531 4.7596789523959186 30.365546643733978 8.4560527652502042 5.4112436324357969 17.373627424240112 4.2898502647876722 5.1810641661286345 6.8802852332592037 4.3372744843363744 10.266037382185457 4.8629924282431602 24.810068294405937 6.8218177258968353 6.2294647619128227 5.1335802227258682 19.175380118191246 4.0573061183094969 14.151935942471026 12.005586415529249 4.688035324215889 40.253029234707355 69.610145807266235 3.9373520761728278 12.180555194616316
leaf_count=5144 66 56 227 48 54 77 69 67 49 58 379 94 61 172 48 60 72 49 110 51 218 68 70 54 236 48 167 144 51 493 871 46 147
internal_value=1.06022e-05 0.0441101 -0.0084622 0.00781134 0.059003 0.0457421 0.0393751 0.0152444 0.00976075 0.000759122 -0.0109873 -0.00407192 0.0167997 0.0530501 0.000391074 -0.00682061 0.0313245 0.037215 0.019514 0.0238026 0.074547 0.0560782 0.0266341 0.031183 -0.00426329 0.00133581 -0.00736406 -0.00831513 0.0155701 -0.00863079 -0.0121383 -0.0107261 -0.0112817
internal_weight=807.167 129.593 677.573 90.786 84.9702 47.4365 41.478 44.6232 38.3944 70.4379 586.787 84.2557 16.4004 23.8228 27.2465 75.7996 20.3482 16.0806 17.6552 9.20027 37.5337 12.7237 11.6407 11.1479 54.0375 22.8565 18.2686 31.181 8.97789 70.6186 502.531 85.7281 81.7907
internal_count=9624 1326 8298 1064 824 484 428 502 435 844 7234 1026 189 241 315 932 220 172 187 100 340 122 131 120 655 275 216 380 99 872 6208 1064 1018
is_linear=0
shrinkage=0.0176368


Tree=12
num_leaves=41
num_cat=0
split_feature=4 12 4 4 12 11 4 12 11 12 11 6 12 4 2 12 2 12 12 1 11 4 5 12 2 12 4 9 1 4 11 12 1 2 12 4 5 4 4 11
split_gain=332.295 70.4987 39.5153 35.84 39.8557 22.0364 15.1049 21.4258 10.8049 10.5165 9.48866 8.87854 7.58399 9.80552 7.0944 6.47356 6.42089 5.73119 5.21393 5.11842 4.85095 4.59706 6.6079 3.24641 3.11657 3.04707 5.1628 3.01975 3.82058 3.25841 2.86404 3.31693 2.34695 2.19844 2.12206 2.8366 1.73108 1.49067 1.37301 0.572075
threshold=68868.628906250015 82478.503796386736 122446.07812500001 103686.11328125001 40954.914550781257 1258.9469166058529 38185.363281250007 35477.739428710942 675.73067418669098 98519.868603515642 397.20093212939889 37128.640546875009 49505.465515136726 53825.732421875007 10572.375000000002 58249.44047241212 28367.450195312504 66113.180895996105 27339.391821289068 33119.314453125007 1121.3689130568039 142978.48437500003 43057.54316406251 29627.702941894535 32328.000000000004 30978.287011718752 26866.337890625004 21007.63360879981 24366.799804687504 90705.402343750015 120.70249410557629 26122.980053710944 34763.500000000007 9039.5000000000018 79136.723297119155 62235.503906250007 42719.172656250004 108361.29296875001 48614.835937500007 288.60557509361382
decision_type=2 10 2 2 10 10 2 8 10 10 10 8 8 2 2 10 2 10 8 2 10 2 10 10 2 8 2 10 2 2 10 8 2 2 8 2 10 2 2 8
left_child=6 3 27 4 -2 21 25 14 19 10 -4 24 13 38 18 -10 -12 -7 -8 -6 -15 22 -5 -16 -11 26 33 -3 29 -29 -28 -32 -23 -1 35 -14 -25 -30 -9 -36
right_child=1 2 9 5 8 17 7 12 15 11 16 -13 34 20 23 -17 -18 -19 -20 -21 -22 32 -24 36 -26 -27 30 28 37 -31 31 -33 -34 -35 39 -37 -38 -39 -40 -41
leaf_value=-0.0012027864366539239 0.036915851659956748 -0.011300084432793126 0.0051685577804292792 0.01706227392597082 0.0061367515871961981 0.060727904323102419 0.031713453615830091 -0.0077695602772904788 0.02352457775199988 0.0059627681293803201 0.036636042790815802 0.026054328763889044 -0.0077271887496225813 0.0022574683245078419 -0.0081638098806745118 0.0092875498644708569 0.012795113675604583 0.029665815845762111 0.0064744208624058948 -0.009256382559315008 0.018908504273940179 0.033667499691526936 0.037311974994977626 0.00047129994541178293 -0.0081662604695100002 -0.010906693088581405 -0.0081845385216399655 -0.0038542910531588156 -0.0081687730280154969 0.01307557442561242 0.016327934249512666 -0.0017366488484870798 0.017653113933283511 -0.010662022039974113 -0.0040346016350326433 -0.00029027632341785951 0.012788843669139486 0.0012598288961221909 -0.00074369570532348912 -0.011667391958164346
leaf_weight=9.3570708110928518 19.258868545293808 19.775755979120731 7.6433673650026348 36.732519999146461 45.573213361203671 7.9934780746698362 5.4054135009646425 33.863114811480045 18.927625112235546 24.280538029968742 11.923958852887155 5.8440285325050345 119.94701015204191 17.542144283652309 5.3018378019332912 23.706326968967915 6.5025442838668814 5.6966754570603371 5.2337847650051126 7.1699202805757514 7.358378753066062 24.09096068143845 6.118987336754798 6.6294801607727987 5.3286754786968222 264.24640792608261 5.4065675735473659 6.3909500911831838 25.126444555819038 6.4622029513120651 5.0426463261246655 6.6285433620214471 6.4887987375259391 49.549645453691483 4.506781004369258 18.571478635072708 7.2178540080785751 6.2255927771329871 11.921120926737784 46.928323499858379
leaf_count=96 160 205 72 325 440 61 48 350 171 232 105 51 1247 171 52 227 58 49 49 69 72 207 52 64 53 2808 56 66 260 65 50 69 55 526 48 187 69 61 121 497
internal_value=7.60622e-06 0.0144092 0.00399308 0.0208485 0.0142113 0.0293848 -0.00747319 -0.00449896 0.00937452 0.0140073 0.0224039 0.0074917 -0.00612323 -0.00116934 0.0095051 0.0159096 0.0290592 0.0500078 0.020556 0.00393838 0.00759531 0.0250754 0.0205454 0.00281142 0.00327099 -0.00999571 -0.00674832 -0.00568066 -0.00301416 0.00487825 0.00171554 0.0065456 0.0307775 -0.00919916 -0.00795305 -0.00673959 0.00723953 -0.00629908 -0.00598899 -0.0110723
internal_weight=957.919 327.261 125.504 201.757 114.636 87.1214 630.658 290.427 95.3771 61.5231 26.0699 35.4532 260.638 70.6848 29.7884 42.634 18.4265 13.6902 10.6392 52.7431 24.9005 73.4313 42.8515 19.1492 29.6092 340.231 75.9845 63.9809 44.2052 12.8532 17.0778 11.6712 30.5798 58.9067 189.954 138.518 13.8473 31.352 45.7842 51.4351
internal_count=9624 3044 1228 1816 1067 749 6580 2975 907 571 235 336 2693 714 282 398 163 110 97 509 243 639 377 185 285 3605 797 657 452 131 175 119 262 622 1979 1434 133 321 471 545
is_linear=0
shrinkage=0.0176368


Tree=13
num_leaves=41
num_cat=0
split_feature=4 10 10 10 12 10 12 4 12 12 4 4 4 12 12 10 12 12 4 4 4 12 10 10 12 7 5 3 10 0 4 9 10 5 0 10 12 10 6 0
split_gain=506.115 143.07 209.967 95.5315 51.7888 51.5483 35.8466 27.1879 33.8972 26.6912 24.482 23.333 21.0431 22.5132 20.7135 22.7742 18.8497 17.3909 16.3472 15.8871 15.5858 14.8479 9.46184 8.66076 8.05142 7.89533 9.14551 7.75945 7.74221 6.86368 5.53993 4.71116 3.91741 5.72018 3.65709 3.59582 3.43248 3.28851 1.77885 1.6501
threshold=70049.648437500015 39.479966936141132 66.401599771894638 67.931612770080122 84539.390795898464 40.998289169734342 83960.725756835964 39531.126953125007 70843.217797851583 24796.626708984379 124821.42187500001 107093.92187500001 40398.189453125007 66352.202569580098 73547.791052246102 49.298996407287625 40445.442480468759 42013.327026367195 142978.48437500003 99924.855468750015 83091.664062500015 55176.640368652348 60.900318828199048 61.080691408307509 37384.619165039076 47641.438037109379 60915.37226562501 39498.960937500007 33.983843297702059 22356.750000000004 51767.171875000007 42232.940318063469 45.634316222995324 61890.542968750007 41975.554687500007 43.994848043361181 28552.917431640628 72.114981858444878 23511.980957031254 17666.565429687504
decision_type=2 10 10 10 10 8 10 2 10 8 2 2 2 10 10 10 10 10 2 2 2 10 10 10 10 10 10 2 10 2 2 10 8 10 2 10 8 10 10 2
left_child=3 4 11 5 17 9 19 16 24 -1 38 27 34 -14 15 -13 37 -2 -8 21 -19 -4 32 -16 -9 36 -27 35 -22 -12 -26 -29 33 -7 -11 -3 -24 -5 -6 -21
right_child=1 2 6 7 10 22 18 8 -10 12 29 14 13 -15 23 -17 -18 20 -20 39 28 -23 25 -25 30 26 -28 31 -30 -31 -32 -33 -34 -35 -36 -37 -38 -39 -40 -41
leaf_value=-0.028687678232238629 -0.052447978196442334 -0.0001531117787918096 -0.034955004543838583 -0.0047742047300130949 0.0087187103221786997 0.0097534705339267086 -0.00090770159047757495 -0.038648847346038545 0.0086203162081406534 0.010618830624861353 -0.012729076715380273 -0.033544241445643511 -0.009769933967892299 0.0082405765571217232 0.0015845896460860321 -0.005555390242604266 0.010510448954325015 -0.015075539510041281 -0.026195325201093699 -0.051903724126785844 -0.040404748590844988 -0.01122500199964944 0.0006111190158995147 -0.013653191973513173 -0.011233737833914657 -0.009872438476440825 0.0090647659786739498 -0.013150652728248927 -0.026257429880120711 -0.030744866855733112 -0.025968473495810624 0.00090606910965437479 0.012228986368285262 -0.0038073423677299368 0.0025834947020777874 0.0079215254262379464 0.0096280789908366922 -0.018823103190329354 -0.0020893995807292364 -0.037524734456947186
leaf_weight=8.6488186717033368 17.149989977478981 20.565543860197067 18.943755745887756 12.288833945989611 8.7868479192256945 131.6274152547121 18.062876969575882 9.5095059871673566 12.135993406176565 58.537938594818115 14.300347581505777 14.368487402796744 64.45487354695797 31.593551635742188 69.226408049464226 23.548221379518509 26.812772333621979 16.119536861777306 13.590462535619737 10.622374206781386 43.174796521663666 15.881643891334532 15.145451530814169 13.17056395113468 16.676513850688934 16.994377538561825 13.619174152612684 8.8601516634225828 26.298078119754791 15.294325128197668 19.062753483653069 32.100785717368126 505.63290302455425 10.018243700265883 26.095770686864853 99.272277846932411 108.48119206726551 9.3469535261392576 8.8816985934972745 36.348458096385002
leaf_count=48 81 120 96 71 52 806 100 48 71 352 78 76 362 190 398 128 163 87 70 50 212 85 91 73 94 99 82 51 135 79 104 185 3138 60 156 592 662 53 51 175
internal_value=-1.12526e-05 -0.0138991 -0.0082952 0.00688927 -0.028524 0.0085912 -0.0284632 -0.00899042 -0.0171239 0.000310278 -0.0129532 -0.000101376 0.00181149 -0.00382418 -0.00595674 -0.0166095 0.000748222 -0.0355396 -0.0121261 -0.0346158 -0.0317279 -0.0246014 0.0105447 -0.000946236 -0.0240643 0.00656048 -0.00142088 0.00428466 -0.0353872 -0.0225735 -0.0194697 -0.00230464 0.011485 0.00877698 0.00818934 0.0065403 0.00853658 -0.011281 0.00339966 -0.0415372
internal_weight=1641.25 544.568 394.562 1096.68 150.006 990.85 113.45 105.833 57.3848 189.331 47.2632 281.112 180.682 96.0484 120.314 37.9167 48.4486 102.742 31.6533 81.7962 85.5924 34.8254 801.519 82.397 45.2488 154.24 30.6136 160.799 69.4729 29.5947 35.7393 40.9609 647.279 141.646 84.6337 119.838 123.627 21.6358 17.6685 46.9708
internal_count=9624 2974 2199 6650 775 6046 576 604 317 1108 260 1623 1060 552 675 204 287 515 170 406 434 181 4938 471 246 934 181 948 347 157 198 236 4004 866 508 712 753 124 103 225
is_linear=0
shrinkage=0.0176368


Tree=14
num_leaves=32
num_cat=0
split_feature=4 5 3 5 4 11 13 7 13 3 4 11 3 11 4 7 11 3 4 13 4 13 13 7 3 13 11 11 11 4 11
split_gain=163.612 26.1054 25.2932 41.3783 24.4927 25.2703 23.7255 23.1429 31.1297 22.735 22.6932 21.3316 18.8001 14.3849 11.7082 11.7001 11.4857 15.362 8.21547 7.71957 7.42889 6.70601 6.04405 4.08401 7.56287 1.84775 3.89896 1.64681 1.57998 0.974216 0.474449
threshold=75214.203125000015 16559.142529296882 39257.869140625007 40784.954882812504 39531.126953125007 116.26390267628229 4239155.2481689462 33713.328364257824 2745832.5561523442 43686.974609375007 98910.277343750015 1467.7617839958405 9304.4501953125018 170.42856059312535 142978.48437500003 7120.8353527832041 626.82523434046641 50989.679687500007 99924.855468750015 4589883.7889404306 44423.328125000007 4906502.1859130869 7283664.6555175791 9270.6766650390655 9656.0400390625018 6076376.9769287119 1313.1933487023796 109.85035952519515 1056.376389070608 34605.035156250007 1270.988073213394
decision_type=2 10 2 10 2 8 2 10 2 2 2 10 2 8 2 10 10 2 2 2 2 2 2 10 2 2 10 8 10 2 10
left_child=4 12 7 -4 22 -6 13 8 14 -5 -10 -11 15 20 -3 -2 19 -18 -14 -8 -7 30 23 24 27 29 -27 -1 -15 -25 -9
right_child=1 2 3 9 5 6 16 21 10 11 -12 -13 18 28 -16 -17 17 -19 -20 -21 -22 -23 -24 25 -26 26 -28 -29 -30 -31 -32
leaf_value=0.00088914710269833092 0.029641738573530071 -0.00035988846524976872 0.053544267575795196 -0.0099842858699776237 0.032071048869566576 -0.010876867371989405 0.034883359911174062 -0.011333851870588088 0.0036856536627929218 0.028305942062131401 0.033994996265439954 -0.0010815973637768037 0.023876639094120244 -0.010003237745303909 0.012584650283985898 -0.0042807517900015574 -0.0046717660755316017 0.0091824147864551318 0.054423081362459082 0.008880651133516701 0.01240837132489628 0.0080219085829112361 0.0070983977037803762 -0.010775335753958674 0.014717037801994902 0.0023755866877350068 -0.011694574242925122 -0.0090062896564707205 0.0013127845212538099 -0.0075128566122605088 -0.0040308327306541507
leaf_weight=6.5130415409803417 4.8863598033785838 58.003979884088039 8.9796019271016103 9.9350720942020398 6.166464038193225 5.1685179546475437 4.2827708125114468 22.587975360453132 11.73086182028055 24.863027833402157 22.848085984587669 10.867918401956556 7.239665284752844 110.50032733380795 33.933447457849979 6.8276449143886566 59.086176499724388 41.903418622910976 7.5279707238078117 15.328285008668898 15.145492158830164 7.4221816882491103 6.9123255684971801 194.56710994243622 5.4102786034345618 11.728185504674913 11.557048738002775 22.401064425706863 3.7488452121615401 43.961027897894382 4.5707301050424567
leaf_count=79 48 676 88 114 65 62 49 270 129 251 220 124 78 1376 370 78 714 487 69 179 170 88 83 2474 62 144 143 279 48 551 56
internal_value=1.33954e-05 0.0121171 0.0100173 0.0203222 -0.00518973 -0.00122556 -0.00212189 0.00644269 0.00992765 0.0130335 0.0240151 0.0195164 0.0284745 -0.00719609 0.00447605 0.0107585 0.00354606 0.00109801 0.041322 0.0156371 0.0062926 -0.00623779 -0.00859566 -0.00897997 -0.00315784 -0.00973083 -0.00473718 -0.00679817 -0.00962266 -0.0102006 -0.0102573
internal_weight=806.605 242.225 215.743 54.6456 564.38 261.33 255.164 161.097 126.516 45.666 34.5789 35.7309 26.4816 134.563 91.9374 11.714 120.601 100.99 14.7676 19.6111 20.314 34.5809 303.05 296.138 34.3244 261.813 23.2852 28.9141 114.249 238.528 27.1587
internal_count=9624 2659 2386 577 6965 3150 3085 1809 1395 489 349 375 273 1656 1046 126 1429 1201 147 228 232 414 3815 3732 420 3312 287 358 1424 3025 326
is_linear=0
shrinkage=0.0176368


Tree=15
num_leaves=41
num_cat=0
split_feature=10 10 10 0 12 12 12 9 10 10 0 10 1 3 0 13 10 12 9 12 12 12 0 8 12 0 12 10 12 2 13 0 12 13 12 13 2 10 10 12
split_gain=742.838 67.4377 61.8741 13.012 12.1103 11.6507 9.27364 11.7135 8.31929 8.23023 10.2046 7.48294 7.1005 10.8228 6.88627 12.9823 6.07671 5.68288 5.702 5.43246 5.24158 3.65165 5.92424 5.29074 4.90042 3.12212 2.96286 2.86646 2.84094 2.40768 7.26333 3.52698 1.91547 1.54051 4.08598 2.42668 1.44738 1.06566 0.63499 0.219555
threshold=39.835792473768208 46.254950866960748 33.149190591249059 27835.150390625004 32327.259521484379 40954.914550781257 55176.640368652348 46186.40795062387 30.894592619667595 42.503507902978534 23150.500000000004 49.18532382243113 41699.949218750007 53879.529296875007 16939.350585937504 685026.97290039074 32.472384703274621 40618.873364257823 37368.89216314596 67405.537683105489 69445.304583740246 61038.126318359384 48332.730468750007 13597.039139174978 98519.868603515642 37749.900390625007 40954.914550781257 36.598429506122308 36237.485595703132 27859.299804687504 2488918.8332519536 44995.189453125007 75359.679486084002 233514.70153808597 84539.390795898464 2687120.848266602 56516.779296875007 40.825921016148634 55.990889593216671 46941.647558593759
decision_type=8 8 10 2 10 8 10 10 10 10 2 8 2 2 2 2 10 10 10 10 10 10 2 10 10 2 10 10 10 2 2 2 10 2 8 2 2 10 8 10
left_child=2 9 5 4 -4 -1 12 19 33 10 28 26 -5 -14 27 -16 32 -12 -19 -8 -9 22 23 -11 25 -23 -3 -6 -2 30 -28 -31 -10 34 -7 -35 -24 -30 39 -13
right_child=1 11 3 6 14 8 7 20 16 21 17 38 13 -15 15 -17 -18 18 -20 -21 -22 24 36 -25 -26 -27 29 -29 37 31 -32 -33 -34 35 -36 -37 -38 -39 -40 -41
leaf_value=0.057045429014226906 0.0083241040668253583 -0.011355308005640413 0.032402150128056001 0.018959920249474904 0.0091926277532960055 0.039441574127564487 0.0097286080007575083 0.014519254527729123 0.023107918134916423 0.00296581269986846 -0.0018237672225862435 -0.011622549943840439 0.051595976289919222 0.023475629058799546 0.026552705550540536 0.0022137223958379223 0.040044098175335531 0.024101366042009457 0.0084704955120271132 0.032893044544157771 -0.008190909606808067 0.0026507382338440944 0.014191867875460373 -0.009879074209640324 -0.0092851699278783326 0.01473138443611237 -0.0044571812316574911 -0.0050244395027651823 -0.00029038092362110394 -0.010707619598467775 0.017013195290395342 0.0011392617740566136 0.0083280352192667481 0.054300469694818838 0.016327635465620115 0.038490483969264813 0.0014913095077317097 -0.0099182525144579144 -0.012088769396332112 -0.0096427242304260447
leaf_weight=14.225254409015177 4.7321496754884746 21.3639792278409 8.8123961612582189 10.073494136333467 6.8977299407124546 8.1794116050004924 5.158788785338408 6.0492409989237768 9.3182011768221873 13.401691161096094 6.653736174106597 63.799224443733692 11.165716387331488 10.190102621912954 14.286397926509382 12.811151430010794 6.7616825029253951 13.876743368804457 17.180718876421452 13.344081550836561 5.2387522086501122 25.176945626735687 4.8455939888954145 34.889165185391903 7.3577191680669776 8.5941907316446287 22.019036792218689 9.7070868015289289 5.7488041222095481 22.785239078104496 5.5076779946684828 11.430204316973684 5.5386523380875579 11.984960675239561 5.6248611584305772 27.855719022452831 6.119927667081356 9.3081712126731855 345.78155303001404 103.50424844026566
leaf_count=105 48 231 76 87 64 64 49 55 81 139 66 689 96 89 131 119 57 134 168 117 48 254 48 365 74 85 229 95 58 240 56 118 51 97 50 217 61 96 3620 1097
internal_value=9.92341e-06 -0.00805951 0.0298747 0.0210061 0.0142125 0.040878 0.0265889 0.0186886 0.0372929 0.00217964 0.00745527 -0.010771 0.0334649 0.0394278 0.0100589 0.015423 0.0261993 0.0127582 0.0158637 0.027075 0.0040929 -0.000870933 -0.00365773 -0.00631583 0.003129 0.00598521 -0.00577457 0.00099999 -0.0027276 -0.00372623 0.000157831 -0.00679893 0.0182769 0.0413403 0.0313559 0.0441571 0.0076765 -0.00645115 -0.0115702 -0.0104477
internal_weight=957.3 754.077 203.224 113.735 52.5148 89.4887 61.2202 29.7909 75.2635 157.886 57.5003 596.191 31.4293 21.3558 43.7024 27.0975 21.6185 37.7112 31.0575 18.5029 11.288 100.385 59.2564 48.2909 41.1289 33.7711 83.1061 16.6048 19.7891 61.7422 27.5267 34.2154 14.8569 53.645 13.8043 39.8407 10.9655 15.057 513.085 167.303
internal_count=9624 7876 1748 1026 485 722 541 269 617 1596 570 6280 272 185 409 250 189 368 302 166 103 1026 613 504 413 339 874 159 202 643 285 358 132 428 114 314 109 154 5406 1786
is_linear=0
shrinkage=0.0176368


Tree=16
num_leaves=41
num_cat=0
split_feature=4 10 10 10 10 12 12 4 12 12 4 4 12 12 10 12 4 12 4 4 4 12 10 10 12 7 9 1 12 13 9 2 13 10 1 10 12 10 4 11
split_gain=479.894 133.356 195.714 93.8012 51.2687 46.4412 31.7549 25.7739 32.1397 24.6777 22.154 20.4621 21.7477 19.1703 21.2036 18.4311 18.0194 16.2713 18.8989 15.3721 13.5444 13.5042 9.46975 8.28937 8.15495 7.78116 7.92357 7.62859 7.09004 7.58116 5.01957 4.75784 4.01068 3.94839 6.14964 3.56219 3.39535 3.13264 1.14044 0.538225
threshold=70049.648437500015 39.479966936141132 66.401599771894638 67.931612770080122 40.998289169734342 88159.696832275411 83960.725756835964 39531.126953125007 70843.217797851583 24796.626708984379 107093.92187500001 40398.189453125007 66352.202569580098 73547.791052246102 49.298996407287625 40445.442480468759 124821.42187500001 42013.327026367195 142978.48437500003 120561.53125000001 99924.855468750015 55176.640368652348 60.900318828199048 61.080691408307509 67763.989794921887 47641.438037109379 61658.83132647493 40054.050781250007 37384.619165039076 4239155.2481689462 42232.940318063469 20575.099609375004 4533831.9897460947 45.634316222995324 61449.955078125007 43.994848043361181 28552.917431640628 72.114981858444878 38857.113281250007 699.16305760534135
decision_type=2 10 10 10 8 10 10 2 10 10 2 2 10 10 10 10 2 10 2 2 2 10 10 10 10 10 10 2 10 2 10 2 2 8 2 10 8 10 2 10
left_child=3 5 10 4 9 17 20 15 28 -1 27 32 -13 14 -12 37 -7 -2 24 -8 21 -4 33 -15 -19 36 -27 35 -9 -30 -29 -18 -11 34 -6 -3 -24 -5 -35 -17
right_child=1 2 6 7 22 16 19 8 -10 11 13 12 -14 23 -16 39 31 18 -20 -21 -22 -23 25 -25 -26 26 -28 30 29 -31 -32 -33 -34 38 -36 -37 -38 -39 -40 -41
leaf_value=-0.027105798891437629 -0.049042030217231934 -0.00012617450237785863 -0.033159829327171646 -0.0047788289084600552 0.0096927753020093297 0.0047397525793063241 0.0010155151445024092 -0.036847536431811462 0.0085444864424511126 0.010406292596595493 -0.031718298931916668 -0.0096045583594166536 0.0081502806419010681 0.0016632563152164184 -0.0051285455606774567 0.012757969690906503 -0.0087043678055434056 -0.029848347339474078 -0.042861911298415843 -0.02309435409792825 -0.038934376627283121 -0.010796320160210456 0.00056876759832355983 -0.013128710623096689 -0.016750539499862532 -0.0083232346065719252 0.009726403867515717 -0.01355669253932627 -0.0075847598997704933 -0.024954970216069638 0.0010333943849014072 -0.025028222080459326 0.0016184739611451292 0.012960435884295322 -0.0046781705502797763 0.0079066649070540038 0.0095534977853117438 -0.018469523046265507 0.010976412243054534 0.0066702973741348953
leaf_weight=9.0003360509872419 18.056683167815208 20.599179074168205 19.643419623374939 12.28559146821499 130.44124127924442 14.486746475100515 15.430035367608069 9.8498219102621061 12.002598777413366 60.892749905586243 14.935750871896742 64.868149191141129 31.207694053649902 69.602155074477196 24.025021880865097 15.178860753774645 9.9192548990249652 39.235462158918381 25.702670469880104 16.667852476239204 49.152090951800346 16.140012696385384 15.099916338920591 13.417037293314932 30.155414044857025 19.055321633815769 11.51097324490547 8.6988760828971845 12.992149382829664 23.220259726047516 32.375620514154434 16.721257299184799 22.451766222715378 297.63853920996189 9.5035624802112562 99.169290840625763 107.13498245179653 9.4495069086551648 200.53223882615566 11.231909722089766
leaf_count=49 81 120 96 71 809 85 86 48 71 372 76 362 190 398 128 94 54 191 120 84 225 85 91 73 159 111 70 49 72 126 185 85 135 1890 57 594 662 53 1248 69
internal_value=-1.39355e-05 -0.0133584 -0.00795582 0.00680205 0.00851007 -0.0272538 -0.0270595 -0.00889368 -0.0167284 0.000238722 0 0.00171794 -0.00381537 -0.00565013 -0.0157315 0.000657515 -0.0109299 -0.0330745 -0.0296842 -0.0117308 -0.032697 -0.0235052 0.010478 -0.00081757 -0.024398 0.00647612 -0.001445 0.00428983 -0.0233527 -0.0190091 -0.00223251 -0.0193624 0.00807839 0.0114271 0.00869479 0.0065297 0.00845669 -0.0111587 0.01218 0.0104345
internal_weight=1639.68 554.134 399.856 1085.55 979.337 154.277 117.033 106.211 58.0648 188.421 282.823 179.42 96.0758 121.98 38.9608 48.1459 41.1273 113.15 95.0935 32.0979 84.9355 35.7834 790.917 83.0192 69.3909 152.801 30.5663 160.843 46.0622 36.2124 41.0745 26.6405 83.3445 638.116 139.945 119.768 122.235 21.7351 498.171 26.4108
internal_count=9624 2974 2199 6650 6046 775 576 604 317 1108 1623 1059 552 675 204 287 224 551 470 170 406 181 4938 471 350 934 181 948 246 198 234 139 507 4004 866 714 753 124 3138 163
is_linear=0
shrinkage=0.0176368


Tree=17
num_leaves=35
num_cat=0
split_feature=10 4 10 12 4 4 12 13 4 10 10 4 7 9 4 12 4 6 10 11 4 4 12 4 7 10 7 4 4 12 12 12 10 11
split_gain=886.297 135.669 88.8649 81.0758 49.5437 44.8468 40.7827 16.6406 13.1795 13.0002 12.4955 12.4294 11.6215 16.7264 8.20944 6.94727 6.08236 5.98437 5.28972 13.7622 4.92757 4.42886 8.4115 3.75446 2.92565 1.9937 0.946904 0.82131 0.733478 0.319148 0.268721 0.197467 0.0113608 0.00326524
threshold=66.401599771894638 48614.835937500007 58.476418907965801 73234.459197998061 80244.289062500015 96954.007812500015 42421.127978515629 6457869.7736816416 75214.203125000015 63.286321559524161 68.633221308493106 32712.630859375004 51953.849169921879 61658.83132647493 92607.671875000015 28552.917431640628 77275.398437500015 23185.194023437503 56.684520634878574 1248.2235948705832 120561.53125000001 34605.035156250007 50577.019470214851 41661.898437500007 26758.802260742192 56.968005015779276 63699.971005859385 22721.823242187504 91891.027343750015 126874.47298583986 55936.98490600587 52433.939892578135 52.659201848998556 534.12819990635091
decision_type=10 2 10 10 2 2 10 2 2 10 10 2 10 10 2 10 2 10 10 10 2 2 8 2 10 10 8 2 2 10 8 10 10 10
left_child=2 6 18 8 12 16 11 23 10 14 -3 15 21 -14 -6 -2 -5 -11 29 25 -7 27 -23 31 -16 -20 -15 -4 -27 32 -12 -8 -1 -22
right_child=1 3 4 5 9 20 7 -9 -10 17 30 -13 13 26 24 -17 -18 -19 19 -21 33 22 -24 -25 -26 28 -28 -29 -30 -31 -32 -33 -34 -35
leaf_value=-0.012395807741413098 0.035649262470598943 0.021821828938581114 -0.0052122534795419574 -0.0069983021586994551 -0.0048288919283939425 0.025500428824107354 -0.0059266667826972739 0.028847817264484651 0.07273191056232145 0.018053033348427724 0.062997277327685147 0.052794089611891075 0.029094658143353009 -0.010596357025388147 0.010394436013349516 0.0077886866752550103 0.016015435052317364 0.047880093738450417 0.00054763555110951153 0.020567085163226275 0.058852695359956568 0.0094527933383789405 -0.0054766695378018759 0.0064137043006866328 0.028596015144153778 -0.01208324669198221 0.00073518505852526099 -0.011144083108245426 -0.0031351278481151074 -0.0070071714595674036 0.039452602884390189 -0.011624381535554378 -0.011066639382961267 0.036018305810590547
leaf_weight=404.01881771534681 4.9280343726277369 5.1526486724615124 15.202459633350371 7.3072638958692533 5.0824392512440744 5.4871890544891366 6.0993702113628485 4.5807107314467421 36.617049373686314 4.7263305112719518 13.109358057379724 6.9416669383645049 7.9468177855014828 4.3131239861249897 6.5548274964094144 6.631604366004467 5.7213080078363419 7.2694850414991379 5.3563458472490302 4.8581716939806929 8.2384896799921972 16.530104607343674 35.914274215698242 5.2973689883947364 6.7551226019859314 25.603330314159397 3.9330638051033029 20.019539102911949 4.0265381708741179 7.4652367159724227 5.8593284115195265 10.418839082121847 82.575525060296059 5.5829861313104638
leaf_count=5067 52 54 193 80 58 50 74 48 291 49 118 70 91 52 71 74 57 70 66 56 69 196 443 57 72 327 48 253 45 92 57 127 1049 48
internal_value=1.60905e-05 0.0405891 -0.00839724 0.0526816 0.00440869 0.0291043 0.0150658 0.000794719 0.0647279 0.023928 0.0507632 0.0345955 -0.00142752 0.0119659 0.0136944 0.0211234 0.00339789 0.0378855 -0.0116196 -0.00528351 0.0456672 -0.00398491 -0.000698137 -0.00583087 0.020676 -0.00923437 -0.00553425 -0.00875369 -0.0109852 -0.0121212 0.0574939 -0.00988556 -0.0121881 0.0519488
internal_weight=806.125 137.973 668.152 93.0756 134.248 32.3372 44.8976 26.3963 60.7384 30.3882 24.1213 18.5013 103.859 16.193 18.3924 11.5596 13.0286 11.9958 533.904 39.8444 19.3087 87.6664 52.4444 21.8156 13.31 34.9862 8.24619 35.222 29.6299 494.06 18.9687 16.5182 486.594 13.8215
internal_count=9624 1326 8298 824 1596 304 502 306 520 320 229 196 1276 191 201 126 137 119 6702 494 167 1085 639 258 143 438 100 446 372 6208 175 201 6116 117
is_linear=0
shrinkage=0.0176368


Tree=18
num_leaves=37
num_cat=0
split_feature=10 10 10 0 7 12 12 12 13 7 10 10 10 1 12 0 7 13 8 12 7 10 12 7 0 10 0 12 13 13 10 12 7 3 9 9
split_gain=701.126 67.0798 54.1349 11.8923 12.8867 11.0559 9.67653 9.12722 20.7028 10.701 7.92791 7.56904 6.98719 6.69691 7.69123 6.52282 12.2505 5.55999 3.21708 4.81696 4.79996 3.96452 2.9539 3.1822 2.89863 2.76071 1.7843 1.7263 1.51677 2.22975 0.664651 0.628655 0.424686 0.482674 0.0679818 0.459841
threshold=39.835792473768208 46.254950866960748 33.149190591249059 27835.150390625004 59213.454912109381 32327.259521484379 40954.914550781257 56597.155419921881 4760534.1047363291 36720.429741210944 41.862562977730427 49.18532382243113 30.894592619667595 22661.500000000004 71755.756024169939 16939.350585937504 23101.444248046879 3723428.3140869145 62175.257892906731 60776.290863037117 41752.36762207032 43.464988164046225 40954.914550781257 16814.164812011721 48029.875000000007 36.598429506122308 44995.189453125007 47741.565808105479 4808358.2326660166 2687120.848266602 55.990889593216671 79136.723297119155 36235.574077148449 11318.084960937502 8408.0304040610754 7297.7623411979193
decision_type=8 8 10 2 10 10 8 10 2 10 10 8 10 2 10 2 10 2 8 10 10 10 10 10 2 10 2 10 2 2 8 8 8 2 8 10
left_child=2 10 6 5 7 -4 -1 8 -5 -9 13 22 28 27 24 25 -17 31 19 21 -21 -12 -3 -24 -15 -7 -25 -2 29 -8 32 -14 33 -13 35 -32
right_child=1 11 3 4 -6 15 12 9 -10 -11 18 30 17 14 -16 16 -18 -19 -20 20 -22 -23 23 26 -26 -27 -28 -29 -30 -31 34 -33 -34 -35 -36 -37
leaf_value=0.052827147256212854 0.0060267527529300194 -0.011314344985240121 0.030750028232171357 0.020268034419524544 0.0068917822342728216 0.0088839395163490213 0.040709090502461395 0.035869470698550281 0.052613640749859809 0.011409473443786504 0.0021231935816161157 -0.012154091788955899 0.019429357282529459 0.0027195211717903462 0.027691696732029796 0.026546132589793478 0.0031396481000172697 0.035092595631154938 0.012377278702427373 0.0059001562001236973 -0.0091992343578141088 -0.0070928214631448914 0.0083109416343880305 -0.006518166240167037 0.016816521558642793 -0.0050187856294097548 0.0012048362603099755 -0.0059940220684915873 0.050818866609492148 0.029050789463198431 -0.01182008078550782 0.0089361343812940086 -0.011852712896456672 -0.0086345732436166854 -0.012203972923663261 -0.0052895361701632195
leaf_weight=15.153741329908369 5.4060647189617148 20.954022660851479 9.1615539938211423 14.425257861614229 10.459035977721213 6.9988039135932949 27.00535149872303 8.4918419197201747 12.571553029119967 17.106293231248856 21.361196510493755 22.262999482452869 7.1850875765085229 14.696335911750799 7.7715320661664 13.369982019066812 14.24327304959297 9.7232974469661695 5.2451294958591452 38.672929368913174 7.1535338237881652 42.486703902482986 5.5786932036280623 44.226083837449551 6.1360105425119391 9.6945612356066686 11.375119134783743 8.6756779998540861 7.9419514536857596 21.261172935366631 11.538222812116148 5.3595741540193567 60.440500520169735 81.87646409124136 322.72094283252954 7.7582627311348906
leaf_count=105 55 231 76 123 94 64 211 72 99 153 220 245 62 142 73 117 133 78 51 388 72 447 57 468 59 95 118 89 54 163 123 49 657 884 3418 79
internal_value=1.27224e-05 -0.0080035 0.0284117 0.0201638 0.0254098 0.0137087 0.0384341 0.028939 0.0363434 0.020316 0.00220579 -0.0107365 0.0351837 0.008626 0.0134268 0.00973039 0.014882 0.0250499 -0.000215574 -0.000899919 0.00342669 -0.00401472 -0.00568411 -0.00363786 0.00732235 0.000918193 -0.00493651 -0.00128385 0.038815 0.0360963 -0.0115455 0.0157201 -0.0103968 -0.00947078 -0.0120736 -0.00950463
internal_weight=956.489 746.336 210.152 116.522 63.054 53.4682 93.6302 52.5949 26.9968 25.5981 157.605 588.731 78.4764 42.6856 28.6039 44.3066 27.6133 22.268 114.919 109.674 45.8265 63.8479 82.1339 61.1799 20.8323 16.6934 55.6012 14.0817 56.2085 48.2665 506.597 12.5447 164.58 104.139 342.017 19.2965
internal_count=9624 7876 1748 1026 541 485 722 447 222 225 1596 6280 617 418 274 409 250 189 1178 1127 460 667 874 643 201 159 586 144 428 374 5406 111 1786 1129 3620 202
is_linear=0
shrinkage=0.0176368


Tree=19
num_leaves=41
num_cat=0
split_feature=10 10 10 10 10 12 10 12 0 0 13 13 10 0 13 13 13 10 12 12 5 0 12 6 6 13 6 13 13 5 6 12 13 6 0 1 12 8 10 12
split_gain=237.292 327.751 39.5919 31.0385 24.3709 20.1949 21.5417 15.1663 13.4758 9.42967 10.6495 7.67929 7.43584 7.32223 8.98403 7.40157 7.17116 5.71102 5.61693 5.44752 5.05673 5.04629 6.3201 5.03776 4.87169 4.71038 4.55041 3.44755 2.98455 2.95246 7.28586 2.79179 3.12636 2.35133 1.76011 4.48452 1.59175 0.527183 0.353935 0.196169
threshold=67.931612770080122 39.479966936141132 30.894592619667595 61.776135250626666 44.591652123274308 73234.459197998061 73.016686737243973 37822.039892578134 22823.250000000004 43968.750000000007 4224351.6005859384 3400525.8835449223 36.598429506122308 20599.350585937504 43204.760986328132 3046786.7102050786 233514.70153808597 66.401599771894638 47438.580999755868 41424.271746826176 13655.049023437501 23150.500000000004 75359.679486084002 22621.625351562503 63321.257851562506 5906953.9733886728 27011.973027343756 -675079.41040039051 -294922.03222656244 39543.865527343754 23080.758027343752 39483.577539062513 5606882.0490722666 30547.665058593757 27652.350585937504 47753.593750000007 30628.129821777347 11678.789605516866 45.991319789141507 29944.677319335944
decision_type=10 8 10 10 8 10 10 10 2 2 2 2 10 2 2 2 2 10 10 10 10 2 8 10 10 2 10 2 2 10 10 10 2 10 2 2 10 10 8 8
left_child=1 2 16 4 21 6 9 12 23 10 11 -2 -4 -7 -15 -16 27 20 -8 -18 39 36 -23 -9 -10 -11 -21 -1 -22 30 -19 38 -33 -17 -20 -36 -3 -14 -6 -5
right_child=5 3 7 17 31 13 18 8 24 25 -12 -13 37 14 15 33 19 29 34 26 28 22 -24 -25 -26 -27 -28 -29 -30 -31 -32 32 -34 -35 35 -37 -38 -39 -40 -41
leaf_value=-0.02101314052052464 -0.01720933474279504 0.0012159489330567485 -0.02790523986779344 0.0059878864893286796 0.0083055065106752875 -0.019948664587344345 -0.032781204712355738 -0.0019404887347788096 -0.011231117423606603 0.0018197626940362173 -0.032013209042601944 0.0015220930251016219 -0.0075443370164889395 0.009427894344492713 -0.0200114982004117 0.0038218810442170398 -0.036418850325408578 -0.0017679269684330683 -0.027690609740558786 -0.034011531935775663 0.0085028461898694532 0.0027427307439113259 -0.0069097547792693606 0.012426631608379006 0.00091740987212566997 -0.013401736408025821 -0.019877258604073293 -0.0068061431270016928 -0.00054956140018010754 0.0014839602752544847 -0.020612215377010357 0.0098181251586209727 0.0061714858319590069 -0.0074672081025917852 -0.01316530838848173 -0.028198031264140663 0.0082031977133280882 -0.014650651434313412 0.012242742020567321 0.0099306137843266327
leaf_weight=9.6287890225648898 27.3448556214571 13.085479602217672 16.744972929358482 12.468608394265177 15.173326253890989 12.039025053381918 34.468818157911301 47.414937436580658 111.17388536036015 14.959221735596659 12.149238616228102 8.7903106957674009 10.498044714331629 10.160468697547911 11.506665125489233 9.2152522951364535 13.014167308807371 18.153146713972095 16.773421406745911 10.12129671871662 11.962006166577337 105.25176377594471 25.604710295796394 8.2731305807828885 11.125757068395613 9.9870505481958372 52.599793434143066 13.399459004402159 103.99116764962673 13.199932292103766 9.2803945094346982 470.05517087876797 93.269478052854538 12.972333729267119 21.022305175662044 10.351329162716864 51.728084847331047 8.9005956798791868 152.49729979038239 17.497374013066292
leaf_count=49 142 80 84 76 95 62 170 270 608 83 63 49 58 58 59 51 60 102 81 51 72 632 150 48 62 53 263 71 617 76 50 2929 578 69 106 52 316 48 972 109
internal_value=-1.61288e-05 0.00257304 -0.0133545 0.00705606 0.00837649 -0.0174048 -0.0206678 -0.00903841 -0.00686583 -0.0134724 -0.0179787 -0.0127034 -0.0193755 -0.00814943 -0.00462532 -0.0089851 -0.0225722 0.000487926 -0.0268655 -0.0252527 0.00212044 0.00283211 0.000823041 0.000322037 -0.0101241 -0.00446972 -0.0225331 -0.0132304 0.000429027 -0.00529887 -0.00852899 0.00985573 0.00922388 -0.00279024 -0.0221916 -0.018671 0.00682775 -0.0112409 0.0119266 0.00848558
internal_weight=1637.85 1426.11 312.895 1113.22 926.665 211.74 155.847 214.131 177.988 73.2307 48.2844 36.1352 36.1436 55.8937 43.8547 33.6943 98.7635 186.553 82.6159 75.7353 145.919 195.67 130.856 55.6881 122.3 24.9463 62.7211 23.0282 115.953 40.6335 27.4335 730.995 563.325 22.1876 48.1471 31.3736 64.8136 19.3986 167.671 29.966
internal_count=9624 8526 1672 6854 5752 1098 799 1178 988 390 254 191 190 299 237 179 494 1102 409 374 874 1178 782 318 670 136 314 120 689 228 152 4574 3507 120 239 158 396 106 1067 185
is_linear=0
shrinkage=0.0176368


Tree=20
num_leaves=34
num_cat=0
split_feature=10 4 10 4 4 13 6 10 7 9 5 13 10 4 13 10 4 6 4 10 4 7 7 3 13 4 7 4 13 4 10 10 10
split_gain=828.006 115.877 88.4465 46.891 31.6244 13.9097 21.8221 11.8572 11.2963 15.7644 9.64833 30.9285 9.94683 7.77739 7.56146 5.35722 8.06184 5.31204 4.40535 4.21025 4.12079 2.81903 2.70995 2.23557 1.33849 1.55176 0.946579 0.827407 0.700753 0.500748 0.396456 0.311985 0.25299
threshold=66.401599771894638 41920.990234375007 58.476418907965801 80244.289062500015 99924.855468750015 6076376.9769287119 10656.176308593751 63.286321559524161 51953.849169921879 61658.83132647493 17006.862402343755 4154826.6837158208 69.245468796740866 92607.671875000015 2391590.7689208989 56.684520634878574 86299.957031250015 23185.194023437503 34605.035156250007 65.223144954777325 77275.398437500015 42919.390654296883 26758.802260742192 57492.599609375007 4466617.6010742197 32947.673828125007 63699.971005859385 22721.823242187504 1791408.9614257815 28853.799804687504 70.19486866641914 52.659201848998556 52.933119830837704
decision_type=10 2 10 2 2 2 8 10 10 10 10 2 10 2 2 10 2 10 2 8 2 10 10 2 2 2 8 2 2 2 10 10 10
left_child=2 5 15 8 10 6 30 13 18 -10 14 20 -13 -5 -3 31 21 -9 27 -20 -12 -17 -15 -23 25 -8 -11 -4 -6 -26 -2 -1 -33
right_child=1 4 3 7 28 -7 24 17 9 26 11 12 -14 22 -16 16 -18 -19 19 -21 -22 23 -24 -25 29 -27 -28 -29 -30 -31 -32 32 -34
leaf_value=-0.012387647275036237 0.016988025407163734 0.06445362672611174 -0.0051301450306282682 -0.0047778841080541269 0.046936290599824106 0.0359659508159203 -0.0055661283942625367 0.017525840624001074 0.028074619340725374 -0.01055565204591383 0.0017829412538455001 0.024376890138411312 0.04888004042575194 0.010144404655630152 0.033858566278396708 -0.012039821952010921 0.010989592368536864 0.045419558712364881 -0.0026453916147560633 0.011412582752967268 0.021123554971396164 0.008928715437854241 0.027543118829713404 -0.0076780267416030716 -0.0027326419528946005 0.0076690379541691335 0.00082133220721936474 -0.011110049032056642 0.063277770337136552 -0.011296718678865891 0.031600597961617891 -0.0056824639257456186 -0.010944316315617972
leaf_weight=405.20846970379353 4.9311656430363673 8.0395350009202975 15.040499866008757 5.0479782745242181 14.738102763891218 4.8878004625439635 5.7149796187877673 4.818603463470934 8.1598808616399783 4.2384257987141583 8.4626008495688421 9.9682003706693632 22.557547837495804 6.6314850226044637 8.5253029614686948 23.49466535449028 7.1285387054085723 7.601630724966526 45.082349345088005 7.0076479762792578 5.2574934586882582 3.7979667708277685 6.9467236176133156 4.935935914516449 3.8677430003881437 4.0696995481848717 3.9045328572392473 19.684035174548626 30.992790706455708 7.2806775569915771 5.0424290597438812 5.8950546830892554 76.463662587106228
leaf_count=5144 54 66 193 58 122 50 67 49 91 52 91 98 198 71 77 305 80 70 555 84 50 48 72 61 48 48 48 253 218 88 51 76 988
internal_value=1.72173e-05 0.0381773 -0.00834705 0.00441646 0.0472095 0.0103775 0.00557427 0.0231469 -0.00134377 0.0118005 0.0381443 0.0328593 0.0420895 0.013364 0.0508456 -0.0115992 -0.00518764 0.0362166 -0.00389506 -0.000614091 0.00992007 -0.00894306 0.020033 -0.000284363 -0.00473401 5.5388e-05 -0.00544397 -0.00869111 0.0588487 -0.00871102 0.0260794 -0.0121073 -0.010626
internal_weight=805.424 144.336 661.088 134.164 108.542 35.7945 30.9067 31.0464 103.117 16.3028 62.8107 46.2458 32.5257 18.6262 16.5648 526.924 39.3571 12.4202 86.8145 52.09 13.7201 32.2286 13.5782 8.7339 20.9331 9.78468 8.14296 34.7245 45.7309 11.1484 9.97359 487.567 82.3587
internal_count=9624 1326 8298 1596 920 406 356 320 1276 191 580 437 296 201 143 6702 494 119 1085 639 141 414 143 109 251 115 100 446 340 136 105 6208 1064
is_linear=0
shrinkage=0.0176368


Tree=21
num_leaves=39
num_cat=0
split_feature=10 10 10 0 10 11 13 11 11 13 10 13 10 0 2 0 12 11 0 13 12 0 12 6 0 10 12 10 13 10 12 12 10 10 6 9 10 10
split_gain=664.196 74.4293 37.4062 17.4071 11.6827 11.6755 14.5329 10.4062 9.84216 8.872 7.25292 5.80366 5.61518 5.0967 3.64461 7.10521 3.35188 3.80909 6.98976 3.49211 3.18332 5.41581 3.17727 4.5577 3.16253 3.15713 2.71427 1.52367 1.24437 0.785694 0.310765 0.413069 1.07747 0.904754 0.074302 1.42867 0.00691528 0.11634
threshold=41.862562977730427 33.149190591249059 49.022705375853491 27835.150390625004 38.25217932161663 184.36138394719069 4349459.732055665 1390.9416217598987 165.84927513204823 925904.46289062512 30.894592619667595 6076376.9769287119 44.591652123274308 62428.851562500007 29076.799804687504 30752.049804687504 65439.143438720712 1121.3689130568039 23150.500000000004 5114217.4421386728 32981.019335937504 11700.095214843752 56355.373876953134 18193.38767578125 26509.570312500004 43.319724256650403 62462.304687500007 48.552004625415819 4115525.1641845708 55.990889593216671 46941.647558593759 66352.202569580098 50.631083589582907 55.134833785195518 7771.1640673828133 7640.1025374941173 54.839844327899492 55.461411321885784
decision_type=8 10 8 2 10 10 2 10 10 2 10 2 10 2 2 2 10 10 2 2 10 2 10 10 2 8 10 10 2 8 10 10 10 10 10 8 10 10
left_child=1 5 12 4 8 -1 10 14 -3 -10 24 -9 16 22 -5 -16 19 18 -18 28 -6 -22 27 -24 -7 -21 -12 -14 -2 30 36 32 -32 -33 35 -31 -4 -38
right_child=2 3 29 7 20 6 -8 11 9 -11 26 -13 13 -15 15 -17 17 -19 -20 25 21 -23 23 -25 -26 -27 -28 -29 -30 34 31 33 -34 -35 -36 -37 37 -39
leaf_value=0.058156698679593409 -0.0018425721691123535 0.033477356411287511 -0.012038905802188284 0.040569948736173193 0.013705600155972752 0.026843905897821017 0.045641145495014954 0.00078377853316594494 0.019637817820918613 7.9151330375674668e-05 0.0065295783039328288 0.019201669702558391 -0.0093304725064013456 0.010922642818619698 0.0053514786261251689 0.025553780749794353 -0.0026497328333785785 -0.0054196626218952467 0.018984794235731246 0.016547589258012696 -0.011507286484785982 0.0048666480480195826 0.010833633266845237 -0.0041516356709826426 0.038950941707111372 -0.002116401981241254 0.022504216600742481 -0.00068699410788499154 -0.009601625677662028 -0.011978354748919447 -0.0027838453757636009 -0.011610240479347549 -0.0092955438738648692 -0.0038570874730698293 -0.012190445228772044 -0.00041778791822548157 -0.0053925341285040642 -0.010943958963834184
leaf_weight=7.7883228510618201 24.691852577030659 8.1920312047004682 51.959939181804657 5.3650496900081626 6.2690005153417578 29.086115837097168 25.482997477054596 10.290979176759722 16.91505599021912 12.274178266525267 6.0621178448200252 10.530590586364267 50.930055603384972 5.6274691969156256 6.5485913380980483 55.02272467315197 7.2820643708109918 5.4543670192360869 11.22991895675659 4.9960925057530376 7.828076712787154 22.829329185187817 6.4042729064822188 54.510463707149029 19.394356444478035 5.1941748559474954 9.981366962194441 7.4784777313470832 8.2967948839068395 14.789359748363497 11.040010720491408 45.410959556698799 39.777546897530556 6.4304286092519751 319.22120364755392 4.3863271102309218 5.5308210998773557 5.2130000591278076
leaf_count=53 259 67 583 44 59 219 178 91 149 111 50 89 553 58 58 475 74 54 109 49 81 220 66 572 137 52 85 81 87 159 120 495 436 70 3415 46 62 58
internal_value=1.52493e-05 0.0240356 -0.00897036 0.0165742 0.0101263 0.03618 0.0338165 0.0218995 0.0169837 0.0116306 0.0286773 0.0104545 -0.00233454 -0.00453656 0.0253013 0.0234999 0.00176252 0.00694849 0.01068 -0.00117593 0.00297783 0.000501624 -0.00533141 -0.00245928 0.0322065 0.00750008 0.017043 -0.00825244 -0.00397247 -0.0114929 -0.0102856 -0.00941971 -0.0079482 -0.0107232 -0.0120581 -0.00946607 -0.0115713 -0.00864893
internal_weight=955.716 259.861 695.856 162.066 74.3077 97.7953 90.007 87.7579 37.3813 29.1892 64.524 20.8216 192.096 124.951 66.9364 61.5713 67.1453 23.9664 18.512 43.1789 36.9264 30.6574 119.323 60.9147 48.4805 10.1903 16.0435 58.4085 32.9886 503.76 165.363 102.659 50.8176 51.8414 338.397 19.1757 62.7038 10.7438
internal_count=9624 2166 7458 1444 687 722 669 757 327 260 491 180 2014 1330 577 533 684 237 183 447 360 301 1272 638 356 101 135 634 346 5444 1824 1121 556 565 3620 205 703 120
is_linear=0
shrinkage=0.0176368


Tree=22
num_leaves=41
num_cat=0
split_feature=4 10 10 10 10 12 12 4 12 4 12 4 12 12 10 12 4 4 12 4 4 12 10 11 10 1 5 12 13 6 8 9 12 10 1 13 10 10 12 11
split_gain=449.806 114.787 164.323 87.4051 47.5325 41.4246 26.2511 22.9401 28.505 21.5473 20.4253 19.2945 20.3591 18.4966 20.207 17.2567 16.6364 13.6781 13.5279 18.4968 10.9235 11.6869 9.39665 7.79767 7.62249 7.51072 6.33281 5.92586 6.81984 5.84031 11.0612 4.8474 4.03668 3.91533 6.05832 3.81496 3.4311 2.79807 1.69934 6.73983
threshold=70049.648437500015 39.479966936141132 66.401599771894638 67.931612770080122 40.998289169734342 88159.696832275411 83960.725756835964 39531.126953125007 70843.217797851583 107093.92187500001 25220.134106445319 40398.189453125007 66352.202569580098 73547.791052246102 49.298996407287625 40445.442480468759 124821.42187500001 120561.53125000001 56597.155419921881 122446.07812500001 99924.855468750015 55176.640368652348 60.900318828199048 1181.2242572991202 61.080691408307509 40054.050781250007 21643.614941406257 37384.619165039076 4239155.2481689462 52609.319609375008 61561.39063613343 42232.940318063469 61591.80000000001 45.634316222995324 61449.955078125007 4533831.9897460947 43.994848043361181 72.114981858444878 42013.327026367195 753.73854394273746
decision_type=2 10 10 10 8 10 10 2 10 2 10 2 10 10 10 10 2 2 10 2 2 10 10 10 10 2 10 10 2 10 10 10 8 8 2 2 10 10 10 10
left_child=3 5 9 4 10 18 20 15 27 25 -1 35 -13 14 -11 37 -7 -8 38 23 21 -4 33 -20 -15 36 -18 -9 -29 32 -31 -27 -24 34 -6 -12 -3 -5 -2 -40
right_child=1 2 6 7 22 16 17 8 -10 13 11 12 -14 24 -16 -17 26 -19 19 -21 -22 -23 29 -25 -26 31 -28 28 -30 30 -32 -33 -34 -35 -36 -37 -38 -39 39 -41
leaf_value=-0.023077947008217959 -0.044501016196678629 -0.00017573540523199038 -0.029993442706077261 -0.004387773012537015 0.0095791039176099831 0.0049052427572234799 0.0012470721861661458 -0.03328158204058107 0.0085274907041583935 -0.031071176283818485 0.010412036966493187 -0.008843232759258586 0.0082086689435113807 0.0014661721723827669 -0.0051910889962555606 0.010394328628664564 -0.0052342609484359618 -0.021127186253397611 -0.021283624328710522 -0.035010834105912672 -0.034796886552853797 -0.0097408543048130482 0.0056848860460263105 -0.0034647409067644465 -0.012637360561870431 -0.013484632703598724 -0.023688772922057726 -0.006818344446098302 -0.022930963512218447 -0.014062491309091974 0.0089929408378632072 0.00086115285664594907 0.012632492638356661 0.012076153329129377 -0.004698689728967323 0.0018847756598709508 0.0077315871361184731 -0.017117722985866834 -0.022332477919343084 -0.041970208673738428
leaf_weight=10.023874461650847 19.396870315074921 20.533299535512924 20.989889308810234 12.53234648704529 127.92328408360481 14.710053130984305 15.673072651028631 10.586258396506308 11.968136116862295 15.145720601081846 60.707910567522049 66.823014542460442 31.446330174803734 68.642257317900658 23.94948174059391 26.186879113316536 9.0433196872472781 17.555153295397758 27.576755374670029 32.33454330265522 53.002315834164619 16.80513271689415 87.441127613186836 10.981459736824034 13.654414147138594 8.720287621021269 18.679006740450859 13.441237613558767 24.439887821674347 11.083892762660982 13.571194127202032 31.995397105813026 38.332145929336548 482.5343514829874 9.4932417869567853 22.888512641191483 96.960825011134148 9.859187647700308 14.456793472170832 14.130168303847311
leaf_count=52 81 120 96 71 809 85 86 48 71 76 369 362 190 398 128 163 48 84 140 146 225 85 543 56 73 49 91 72 126 63 84 185 244 3138 57 135 594 53 66 62
internal_value=-1.82214e-05 -0.0127428 -0.0076903 0.00669582 0.00839197 -0.0252902 -0.0245212 -0.00822849 -0.0154144 -0.000178189 0.000533019 0.00192446 -0.00336234 -0.00574982 -0.0156166 0.000800831 -0.0100854 -0.0107651 -0.0306185 -0.0251553 -0.029424 -0.0213572 0.0103467 -0.0163786 -0.000960951 0.00410136 -0.0179737 -0.0213732 -0.017463 0.00633508 -0.00146475 -0.00238788 0.00786662 0.0113108 0.00857022 0.00811863 0.0063541 -0.0103764 -0.0381789 -0.0328641
internal_weight=1636.22 564.936 403.627 1071.28 962.269 161.309 124.026 109.014 60.4355 279.602 191.89 181.866 98.2693 121.392 39.0952 48.5784 42.4324 33.2282 118.877 70.8928 90.7973 37.795 770.379 38.5582 82.2967 158.21 27.7223 48.4674 37.8811 150.428 24.6551 40.7157 125.773 619.951 137.417 83.5964 117.494 22.3915 47.9838 28.587
internal_count=9624 2974 2199 6650 6046 775 576 604 317 1623 1108 1056 552 675 204 287 224 170 551 342 406 181 4938 196 471 948 139 246 198 934 147 234 787 4004 866 504 714 124 209 128
is_linear=0
shrinkage=0.0176368


Tree=23
num_leaves=31
num_cat=0
split_feature=10 10 10 12 2 10 6 7 6 12 2 8 13 11 6 8 10 11 12 12 7 7 8 13 7 10 12 12 10 1
split_gain=775.977 87.9901 35.0157 30.1051 12.6761 11.1091 10.1749 9.84134 9.56232 13.7265 8.92504 8.69001 12.2354 7.25443 6.86105 5.85556 5.42316 13.4964 5.14956 4.95044 4.94453 4.30167 3.64203 3.22543 3.10494 2.0186 0.710462 0.330377 0.0322277 0.0163503
threshold=66.401599771894638 58.476418907965801 73.016686737243973 73234.459197998061 43602.000000000007 61.584747121287407 45957.833906250009 40825.346826171881 35717.723925781254 88159.696832275411 58542.355468750007 28746.677612036587 43204.760986328132 1406.9470680503905 8470.7084033203155 59093.026986484583 56.684520634878574 1248.2235948705832 89251.315771484384 54936.510028076176 47641.438037109379 40215.595371093754 23980.50899838829 3723428.3140869145 26758.802260742192 56.968005015779276 85531.397717285174 126874.47298583986 52.659201848998556 43958.050781250007
decision_type=10 10 10 10 2 10 10 10 10 10 2 10 2 8 10 8 10 10 10 10 10 8 8 2 10 10 10 10 10 2
left_child=1 16 4 19 8 13 -6 18 9 14 20 12 -5 21 -2 -8 27 25 23 -4 -9 24 -20 -7 -3 -18 -27 28 -1 -23
